{"learner":{"attributes":{"best_iteration":"276","best_score":"0.6956555063724659","scikit_learn":"{\"_estimator_type\": \"regressor\"}"},"feature_names":[],"feature_types":[],"gradient_booster":{"model":{"cats":{"enc":[],"feature_segments":[],"sorted_idx":[]},"gbtree_model_param":{"num_parallel_tree":"1","num_trees":"307"},"iteration_indptr":[0,1,2,3,4,5,6,7,8,9,10,11,12,13,14,15,16,17,18,19,20,21,22,23,24,25,26,27,28,29,30,31,32,33,34,35,36,37,38,39,40,41,42,43,44,45,46,47,48,49,50,51,52,53,54,55,56,57,58,59,60,61,62,63,64,65,66,67,68,69,70,71,72,73,74,75,76,77,78,79,80,81,82,83,84,85,86,87,88,89,90,91,92,93,94,95,96,97,98,99,100,101,102,103,104,105,106,107,108,109,110,111,112,113,114,115,116,117,118,119,120,121,122,123,124,125,126,127,128,129,130,131,132,133,134,135,136,137,138,139,140,141,142,143,144,145,146,147,148,149,150,151,152,153,154,155,156,157,158,159,160,161,162,163,164,165,166,167,168,169,170,171,172,173,174,175,176,177,178,179,180,181,182,183,184,185,186,187,188,189,190,191,192,193,194,195,196,197,198,199,200,201,202,203,204,205,206,207,208,209,210,211,212,213,214,215,216,217,218,219,220,221,222,223,224,225,226,227,228,229,230,231,232,233,234,235,236,237,238,239,240,241,242,243,244,245,246,247,248,249,250,251,252,253,254,255,256,257,258,259,260,261,262,263,264,265,266,267,268,269,270,271,272,273,274,275,276,277,278,279,280,281,282,283,284,285,286,287,288,289,290,291,292,293,294,295,296,297,298,299,300,301,302,303,304,305,306,307],"tree_info":[0,0,0,0,0,0,0,0,0,0,0,0,0,0,0,0,0,0,0,0,0,0,0,0,0,0,0,0,0,0,0,0,0,0,0,0,0,0,0,0,0,0,0,0,0,0,0,0,0,0,0,0,0,0,0,0,0,0,0,0,0,0,0,0,0,0,0,0,0,0,0,0,0,0,0,0,0,0,0,0,0,0,0,0,0,0,0,0,0,0,0,0,0,0,0,0,0,0,0,0,0,0,0,0,0,0,0,0,0,0,0,0,0,0,0,0,0,0,0,0,0,0,0,0,0,0,0,0,0,0,0,0,0,0,0,0,0,0,0,0,0,0,0,0,0,0,0,0,0,0,0,0,0,0,0,0,0,0,0,0,0,0,0,0,0,0,0,0,0,0,0,0,0,0,0,0,0,0,0,0,0,0,0,0,0,0,0,0,0,0,0,0,0,0,0,0,0,0,0,0,0,0,0,0,0,0,0,0,0,0,0,0,0,0,0,0,0,0,0,0,0,0,0,0,0,0,0,0,0,0,0,0,0,0,0,0,0,0,0,0,0,0,0,0,0,0,0,0,0,0,0,0,0,0,0,0,0,0,0,0,0,0,0,0,0,0,0,0,0,0,0,0,0,0,0,0,0,0,0,0,0,0,0,0,0,0,0,0,0,0,0,0,0,0,0,0,0,0,0,0,0,0,0,0,0,0,0],"trees":[{"base_weights":[-1.0671698E-2,-7.150656E0,6.78445E0,-1.2727159E1,-4.030255E0,3.7712295E0,1.20369835E1,-1.8300854E1,-1.0922427E1,-6.245381E0,-2.2132397E0,1.7749047E0,5.7368236E0,1.0274165E1,1.6318846E1,-2.3087444E1,-1.6484451E1,-1.26998625E1,-9.661787E0,-7.2501626E0,-5.236876E0,-3.2812166E0,-1.2167048E0,7.9850006E-1,2.7173922E0,4.764012E0,6.812758E0,9.17419E0,1.1862901E1,1.4978685E1,1.970565E1,-1.2963241E0,-1.0774783E0,-9.284318E-1,-1.5794455E1,-1.3683712E1,-1.1929756E1,-1.0483119E1,-9.007259E0,-7.7998405E0,-6.7008057E0,-5.647687E0,-4.7289996E0,-3.7724686E0,-2.7322164E0,-1.6563507E0,-6.5011084E-1,2.920268E-1,1.2986338E0,2.2017486E0,3.1621513E0,4.2199187E0,5.29321E0,7.26577E0,6.030853E0,9.778433E0,8.403531E0,1.2358495E1,1.0769376E1,1.4215408E1,1.6092419E1,1.8756538E1,1.1267514E0,-8.2014096E-1,-7.5891954E-1,-7.06692E-1,-6.607086E-1,-6.162566E-1,-5.76132E-1,-5.418879E-1,-5.0976497E-1,-9.383424E0,-8.680182E0,-6.3380504E0,-7.8817368E0,-5.3042383E0,-6.7810383E0,-4.508506E0,-5.747492E0,-3.4102964E0,-4.862178E0,-2.1822693E0,-3.8677304E0,-1.6370089E0,-2.8901362E0,-3.9934218E-1,-1.7709109E0,1.9274847E-1,-8.4430116E-1,1.1766202E0,7.8098476E-2,2.5347166E0,1.0748613E0,1.7933711E0,2.7559068E0,2.4350777E0,3.6751707E0,3.65246E0,4.6875515E0,4.4417367E0,5.7409077E0,6.7279634E0,7.82333E0,5.691919E0,3.317404E-1,9.250447E0,1.0588547E1,7.722499E0,9.039155E0,5.8392185E-1,1.3020594E1,9.99316E0,5.671009E-1,7.355891E-1,6.572747E-1,8.304391E-1,7.4689597E-1,2.3261106E-1,9.388656E-1,-3.893785E-1,-4.7252685E-1,-3.9469236E-1,-4.396945E-1,-3.188717E-1,-8.263894E-2,-4.0791765E-1,-3.7634024E-1,-2.449084E-1,-3.2154024E-1,-3.54519E-1,-3.2679233E-1,-2.5230637E-1,-1.7898233E-1,-3.0374393E-1,-2.7675068E-1,-1.9298586E-1,-1.2243344E-1,-2.3295079E-1,-2.5955698E-1,-1.5685795E-1,-8.286458E-2,-1.829846E-1,-2.1001278E-1,-4.6315175E-2,-1.0211032E-1,-1.59395E-1,-1.3150118E-1,-4.0633436E-2,5.5215944E-2,-1.0523675E-1,-7.478874E-2,-6.679829E-3,6.008323E-2,-4.9261905E-2,-1.8261E-2,8.35483E-2,2.6117368E-2,-1.2930976E-2,1.8212143E-2,1.6097671E-1,9.422034E-2,3.905254E-2,7.035783E-2,7.565699E-2,1.0406438E-1,1.6733678E-1,1.3238776E-1,9.798609E-2,1.4304866E-1,1.5816934E-1,2.0315519E-1,1.6587102E-1,1.9279997E-1,2.1726978E-1,2.4691342E-1,1.9952394E-1,2.5889453E-1,2.544961E-1,3.0769747E-1,2.9744378E-1,3.5210073E-1,3.4123883E-1,4.0379372E-1,2.6530156E-1,2.9838264E-1,4.105552E-1,4.770104E-1,4.6928486E-1,5.400429E-1,3.6589321E-1,3.974643E-1,4.2917606E-1,4.6683893E-1,6.387451E-1,7.034313E-1,1.0861063E-2,5.013004E-1],"categories":[],"categories_nodes":[],"categories_segments":[],"categories_sizes":[],"default_left":[0,0,0,0,0,0,0,0,0,0,0,0,0,0,0,0,0,0,0,0,0,0,0,0,0,0,0,0,0,0,0,0,0,0,0,0,0,0,0,0,0,0,0,0,0,0,0,0,0,0,0,0,0,0,0,0,0,0,0,0,0,0,0,0,0,0,0,0,0,0,0,0,0,0,0,0,0,0,0,0,0,0,0,0,0,0,0,0,0,0,0,0,0,0,0,0,0,0,0,0,0,0,0,0,0,0,0,0,0,0,0,0,0,0,0,0,0,0,0,0,0,0,0,0,0,0,0,0,0,0,0,0,0,0,0,0,0,0,0,0,0,0,0,0,0,0,0,0,0,0,0,0,0,0,0,0,0,0,0,0,0,0,0,0,0,0,0,0,0,0,0,0,0,0,0,0,0,0,0,0,0,0,0,0,0,0,0,0,0,0,0,0,0,0,0,0,0],"id":0,"left_children":[1,3,5,7,9,11,13,15,17,19,21,23,25,27,29,31,33,35,37,39,41,43,45,47,49,51,53,55,57,59,61,-1,-1,-1,63,65,67,69,71,73,75,77,79,81,83,85,87,89,91,93,95,97,99,101,103,105,107,109,111,113,115,117,-1,-1,-1,-1,-1,-1,-1,-1,-1,119,121,123,125,127,129,131,133,135,137,139,141,143,145,147,149,151,153,155,157,159,161,163,165,167,169,171,173,175,177,179,181,183,-1,185,187,189,191,-1,193,195,-1,-1,-1,-1,-1,-1,-1,-1,-1,-1,-1,-1,-1,-1,-1,-1,-1,-1,-1,-1,-1,-1,-1,-1,-1,-1,-1,-1,-1,-1,-1,-1,-1,-1,-1,-1,-1,-1,-1,-1,-1,-1,-1,-1,-1,-1,-1,-1,-1,-1,-1,-1,-1,-1,-1,-1,-1,-1,-1,-1,-1,-1,-1,-1,-1,-1,-1,-1,-1,-1,-1,-1,-1,-1,-1,-1,-1,-1,-1,-1,-1,-1,-1,-1,-1],"loss_changes":[1.8996855E6,3.3218462E5,3.1747675E5,6.8704375E4,4.926728E4,5.0020344E4,5.5031875E4,1.41738125E4,1.14774375E4,5.552547E3,7.156457E3,5.820248E3,6.691422E3,8.9488125E3,9.377125E3,1.4409844E3,1.4568438E3,1.4619375E3,1.5360625E3,7.8146875E2,5.485156E2,8.6540234E2,8.662915E2,7.8714417E2,7.3127344E2,9.500156E2,1.0358281E3,1.3460312E3,1.0141875E3,1.07275E3,1.1912344E3,0E0,0E0,0E0,9.621875E1,1.0859375E1,5.290625E1,2.6171875E1,1.27078125E2,1.1453125E2,1.1955469E2,1.4678906E2,2.0101562E2,2.5075E2,2.611006E2,2.8153955E2,2.4943994E2,2.924725E2,4.2988013E2,3.331587E2,6.348535E2,4.260332E2,6.2559375E2,5.2459375E2,1.9232031E2,6.3475E2,5.1675E2,5.0082812E2,1.8358594E2,2.9359375E2,1.1853125E2,4.625E1,0E0,0E0,0E0,0E0,0E0,0E0,0E0,0E0,0E0,9.5234375E0,1.284375E1,3.852295E0,6.59375E1,5.0981445E0,5.2945312E1,4.535742E1,6.3273438E1,4.1113403E1,5.086914E1,4.4429047E1,9.621289E1,5.4551636E1,9.555664E1,1.03445465E2,1.6180908E2,9.43274E1,8.3230225E1,9.648172E1,1.2014626E2,1.0037036E2,1.283606E2,6.6480225E1,3.152295E1,1.3955078E2,1.8766992E2,3.8966797E1,5.6777344E1,1.763291E2,2.687539E2,1.9959766E2,1.816836E2,4.5689453E1,0E0,2.36375E2,6.946875E1,2.4882812E0,1.4105469E1,0E0,7.2109375E0,9.158984E1,0E0,0E0,0E0,0E0,0E0,0E0,0E0,0E0,0E0,0E0,0E0,0E0,0E0,0E0,0E0,0E0,0E0,0E0,0E0,0E0,0E0,0E0,0E0,0E0,0E0,0E0,0E0,0E0,0E0,0E0,0E0,0E0,0E0,0E0,0E0,0E0,0E0,0E0,0E0,0E0,0E0,0E0,0E0,0E0,0E0,0E0,0E0,0E0,0E0,0E0,0E0,0E0,0E0,0E0,0E0,0E0,0E0,0E0,0E0,0E0,0E0,0E0,0E0,0E0,0E0,0E0,0E0,0E0,0E0,0E0,0E0,0E0,0E0,0E0,0E0,0E0,0E0,0E0,0E0,0E0,0E0,0E0,0E0,0E0,0E0],"parents":[2147483647,0,0,1,1,2,2,3,3,4,4,5,5,6,6,7,7,8,8,9,9,10,10,11,11,12,12,13,13,14,14,15,15,16,16,17,17,18,18,19,19,20,20,21,21,22,22,23,23,24,24,25,25,26,26,27,27,28,28,29,29,30,30,34,34,35,35,36,36,37,37,38,38,39,39,40,40,41,41,42,42,43,43,44,44,45,45,46,46,47,47,48,48,49,49,50,50,51,51,52,52,53,53,54,54,55,55,56,56,57,57,58,58,59,59,60,60,61,61,71,71,72,72,73,73,74,74,75,75,76,76,77,77,78,78,79,79,80,80,81,81,82,82,83,83,84,84,85,85,86,86,87,87,88,88,89,89,90,90,91,91,92,92,93,93,94,94,95,95,96,96,97,97,98,98,99,99,100,100,101,101,102,102,103,103,105,105,106,106,107,107,108,108,110,110,111,111],"right_children":[2,4,6,8,10,12,14,16,18,20,22,24,26,28,30,32,34,36,38,40,42,44,46,48,50,52,54,56,58,60,62,-1,-1,-1,64,66,68,70,72,74,76,78,80,82,84,86,88,90,92,94,96,98,100,102,104,106,108,110,112,114,116,118,-1,-1,-1,-1,-1,-1,-1,-1,-1,120,122,124,126,128,130,132,134,136,138,140,142,144,146,148,150,152,154,156,158,160,162,164,166,168,170,172,174,176,178,180,182,184,-1,186,188,190,192,-1,194,196,-1,-1,-1,-1,-1,-1,-1,-1,-1,-1,-1,-1,-1,-1,-1,-1,-1,-1,-1,-1,-1,-1,-1,-1,-1,-1,-1,-1,-1,-1,-1,-1,-1,-1,-1,-1,-1,-1,-1,-1,-1,-1,-1,-1,-1,-1,-1,-1,-1,-1,-1,-1,-1,-1,-1,-1,-1,-1,-1,-1,-1,-1,-1,-1,-1,-1,-1,-1,-1,-1,-1,-1,-1,-1,-1,-1,-1,-1,-1,-1,-1,-1,-1,-1,-1],"split_conditions":[1.142E1,7.1E-1,1.703E1,-5.53E0,4.79E0,1.28E1,2.263E1,-1.075E1,-2.13E0,2.89E0,9.92E0,1.083E1,1.495E1,1.984E1,2.675E1,-1.48E1,3.25E0,-3.75E0,-7.3E-1,6.98E0,8.1E0,9.26E0,1.075E1,9.87E0,1.2246469E-16,1.2246469E-16,1.6E1,1.5E1,1.7E1,2.459E1,3.026E1,-1.2963241E0,-1.0774783E0,-9.284318E-1,3.71E0,-4.61E0,4.96E0,5.48E0,-3E-2,1E-1,1.08E0,2.32E0,3.43E0,3.75E0,5.46E0,6.26E0,7.83E0,8.71E0,9.49E0,1.198E1,5E0,1.376E1,5E0,1.594E1,1.627E1,1.857E1,1.829E1,2.106E1,2.086E1,1.7E1,1.7E1,1.828E1,1.1267514E0,-8.2014096E-1,-7.5891954E-1,-7.06692E-1,-6.607086E-1,-6.162566E-1,-5.76132E-1,-5.418879E-1,-5.0976497E-1,-1.62E0,-1.6E-1,6.585E0,6.73E0,2.029E2,7.22E0,3.1333516E0,7.75E0,3.307425E0,1.5E1,3.0201907E0,1.5E1,1.49E0,9.59E0,4.2358966E0,7.37E0,1.0011666E1,8.660254E-1,1.916E2,9.39E0,1.72E0,1.2246469E-16,1.142E1,-7.0710677E-1,1.18E1,1.172E1,1.317E1,1.424E1,1.413E1,1.367E1,5E0,4E0,1.553E1,3.317404E-1,5E0,5E0,1.752E1,1.888E1,5.8392185E-1,7.0710677E-1,4E0,5.671009E-1,7.355891E-1,6.572747E-1,8.304391E-1,7.4689597E-1,2.3261106E-1,9.388656E-1,-3.893785E-1,-4.7252685E-1,-3.9469236E-1,-4.396945E-1,-3.188717E-1,-8.263894E-2,-4.0791765E-1,-3.7634024E-1,-2.449084E-1,-3.2154024E-1,-3.54519E-1,-3.2679233E-1,-2.5230637E-1,-1.7898233E-1,-3.0374393E-1,-2.7675068E-1,-1.9298586E-1,-1.2243344E-1,-2.3295079E-1,-2.5955698E-1,-1.5685795E-1,-8.286458E-2,-1.829846E-1,-2.1001278E-1,-4.6315175E-2,-1.0211032E-1,-1.59395E-1,-1.3150118E-1,-4.0633436E-2,5.5215944E-2,-1.0523675E-1,-7.478874E-2,-6.679829E-3,6.008323E-2,-4.9261905E-2,-1.8261E-2,8.35483E-2,2.6117368E-2,-1.2930976E-2,1.8212143E-2,1.6097671E-1,9.422034E-2,3.905254E-2,7.035783E-2,7.565699E-2,1.0406438E-1,1.6733678E-1,1.3238776E-1,9.798609E-2,1.4304866E-1,1.5816934E-1,2.0315519E-1,1.6587102E-1,1.9279997E-1,2.1726978E-1,2.4691342E-1,1.9952394E-1,2.5889453E-1,2.544961E-1,3.0769747E-1,2.9744378E-1,3.5210073E-1,3.4123883E-1,4.0379372E-1,2.6530156E-1,2.9838264E-1,4.105552E-1,4.770104E-1,4.6928486E-1,5.400429E-1,3.6589321E-1,3.974643E-1,4.2917606E-1,4.6683893E-1,6.387451E-1,7.034313E-1,1.0861063E-2,5.013004E-1],"split_indices":[5,1,1,1,1,1,1,1,1,1,5,1,1,1,1,1,5,1,1,5,5,5,5,1,20,20,14,14,14,1,1,0,0,0,5,1,5,5,1,26,26,26,26,26,26,26,26,26,26,1,14,1,14,1,1,1,1,1,1,14,14,28,0,0,0,0,0,0,0,0,0,26,26,34,5,13,5,33,5,33,14,33,14,11,5,33,1,32,20,13,1,11,20,1,21,1,1,1,1,1,1,14,14,1,0,14,14,1,1,0,20,16,0,0,0,0,0,0,0,0,0,0,0,0,0,0,0,0,0,0,0,0,0,0,0,0,0,0,0,0,0,0,0,0,0,0,0,0,0,0,0,0,0,0,0,0,0,0,0,0,0,0,0,0,0,0,0,0,0,0,0,0,0,0,0,0,0,0,0,0,0,0,0,0,0,0,0,0,0,0,0,0,0,0,0,0,0],"split_type":[0,0,0,0,0,0,0,0,0,0,0,0,0,0,0,0,0,0,0,0,0,0,0,0,0,0,0,0,0,0,0,0,0,0,0,0,0,0,0,0,0,0,0,0,0,0,0,0,0,0,0,0,0,0,0,0,0,0,0,0,0,0,0,0,0,0,0,0,0,0,0,0,0,0,0,0,0,0,0,0,0,0,0,0,0,0,0,0,0,0,0,0,0,0,0,0,0,0,0,0,0,0,0,0,0,0,0,0,0,0,0,0,0,0,0,0,0,0,0,0,0,0,0,0,0,0,0,0,0,0,0,0,0,0,0,0,0,0,0,0,0,0,0,0,0,0,0,0,0,0,0,0,0,0,0,0,0,0,0,0,0,0,0,0,0,0,0,0,0,0,0,0,0,0,0,0,0,0,0,0,0,0,0,0,0,0,0,0,0,0,0,0,0,0,0,0,0],"sum_hessian":[3.9153E4,1.9092E4,2.0061E4,6.849E3,1.2243E4,1.2749E4,7.312E3,1.673E3,5.176E3,5.516E3,6.727E3,6.326E3,6.423E3,5.182E3,2.13E3,4.57E2,1.216E3,2.144E3,3.032E3,2.76E3,2.756E3,3.246E3,3.481E3,3.108E3,3.218E3,3.376E3,3.047E3,3.066E3,2.116E3,1.53E3,6E2,1.55E2,3.02E2,2.96E2,9.2E2,9.34E2,1.21E3,1.338E3,1.694E3,1.373E3,1.387E3,1.518E3,1.238E3,1.71E3,1.536E3,1.959E3,1.522E3,1.545E3,1.563E3,1.493E3,1.725E3,1.669E3,1.707E3,1.924E3,1.123E3,1.712E3,1.354E3,1.449E3,6.67E2,9.16E2,6.14E2,4.55E2,1.45E2,4.5E2,4.7E2,4.62E2,4.72E2,5.99E2,6.11E2,5.83E2,7.55E2,7.75E2,9.19E2,7.7E1,1.296E3,7.9E1,1.308E3,1.26E2,1.392E3,1.16E2,1.122E3,9.8E1,1.612E3,1.95E2,1.341E3,1.64E2,1.795E3,2.85E2,1.237E3,3E2,1.245E3,2.38E2,1.325E3,8.62E2,6.31E2,7.16E2,1.009E3,7.58E2,9.11E2,5.92E2,1.115E3,9.86E2,9.38E2,7.26E2,3.97E2,1.044E3,6.68E2,6.6E2,6.94E2,7.24E2,7.25E2,2.91E2,3.76E2,6.17E2,2.99E2,4.15E2,1.99E2,1E0,4.54E2,3.6E1,7.39E2,1.25E2,7.94E2,7.6E1,1E0,7.16E2,5.8E2,6.2E1,1.7E1,5.66E2,7.42E2,7.7E1,4.9E1,5.37E2,8.55E2,7.7E1,3.9E1,7.03E2,4.19E2,3.3E1,6.5E1,9.99E2,6.13E2,7.2E1,1.23E2,6.2E2,7.21E2,1.29E2,3.5E1,8.08E2,9.87E2,2.16E2,6.9E1,9.55E2,2.82E2,1.7E2,1.3E2,5.72E2,6.73E2,1.14E2,1.24E2,7.05E2,6.2E2,4.4E2,4.22E2,9.3E1,5.38E2,3.41E2,3.75E2,4.39E2,5.7E2,2.93E2,4.65E2,3.93E2,5.18E2,3.71E2,2.21E2,4.38E2,6.77E2,2.89E2,6.97E2,1.95E2,7.43E2,3.11E2,4.15E2,2.34E2,8.1E2,1.07E2,5.61E2,2.49E2,4.11E2,2.86E2,4.08E2,5.98E2,1.27E2,1E0,2.9E2],"tree_param":{"num_deleted":"0","num_feature":"38","num_nodes":"197","size_leaf_vector":"1"}},{"base_weights":[-1.6815245E-2,-6.6983333E0,6.601734E0,-1.2016785E1,-3.6864357E0,3.707247E0,1.1510784E1,-1.745107E1,-1.0297873E1,-5.67792E0,-1.8394859E0,1.8977298E0,5.5526633E0,9.7087965E0,1.5387746E1,-2.1966038E1,-1.5703717E1,-1.2036962E1,-9.137264E0,-6.8385406E0,-4.7741838E0,-2.8439138E0,-9.9619067E-1,1.0334625E0,2.874083E0,4.623753E0,6.4773555E0,8.727078E0,1.1180691E1,1.38941E1,1.8248272E1,-1.2316245E0,-1.0244188E0,-8.591901E-1,-7.3905593E-1,-1.2842028E1,-5.606553E-1,-9.884113E0,-8.452622E0,-7.3665547E0,-6.3726416E0,-5.283382E0,-4.1688743E0,-3.31836E0,-2.4090579E0,-1.4914588E0,-5.4902977E-1,5.3281033E-1,1.5201473E0,2.3741305E0,3.2983353E0,4.10051E0,5.130237E0,6.8758616E0,5.670116E0,9.293621E0,8.031682E0,1.1747584E1,1.0299694E1,1.3119412E1,1.4625041E1,1.6965338E1,2.0213394E1,-6.693826E-1,-6.2144345E-1,-5.076775E-1,-4.7318345E-1,-8.746346E0,-8.08517E0,-6.0134954E0,-7.4347386E0,-5.213358E0,-6.458566E0,-4.190751E0,-5.3609376E0,-2.7288222E0,-4.2695637E0,-1.3833121E0,-3.3854907E0,-1.6004176E0,-2.5812168E0,-2.2766188E-2,-1.6050761E0,2.6113158E-1,-7.107067E-1,1.5184196E0,3.6465263E-1,2.7411468E0,1.3550129E0,1.8667113E0,2.7313852E0,2.5873942E0,3.7561083E0,3.711497E0,4.554149E0,4.2902174E0,5.538091E0,6.387127E0,7.3546185E0,5.046162E0,5.974694E0,8.652336E0,9.926731E0,7.377221E0,4.314551E-1,5.569476E-1,6.1281866E-1,9.839529E0,1.1030408E1,6.85062E-1,6.0832125E-1,7.5615424E-1,6.8104213E-1,8.735327E-1,7.870018E-1,9.4561577E-1,1.0695833E0,-3.889011E-1,-4.424425E-1,-3.5036752E-1,-4.0944466E-1,-3.046001E-1,-1.1932675E-1,-3.8180855E-1,-3.5254693E-1,-2.9261267E-1,-2.2561303E-1,-3.3706072E-1,-3.117056E-1,-2.2729747E-1,-1.4777975E-1,-2.8563794E-1,-2.5615004E-1,-1.6949062E-1,-9.43523E-2,-2.3054002E-1,-2.0271662E-1,-1.1280769E-1,-4.8485693E-2,-1.5891431E-1,-1.8661685E-1,-9.333943E-2,-2.2723945E-2,-1.19431034E-1,-1.4536972E-1,-1.855455E-2,7.002544E-2,-7.015856E-2,-9.789443E-2,-1.04966555E-2,4.6892684E-2,-5.1030256E-2,-2.2090951E-2,4.931771E-2,1.1178171E-1,9.962272E-3,5.081306E-2,1.5949604E-1,1.02822445E-1,5.207174E-2,8.352869E-2,1.0045099E-1,7.4295335E-2,1.7140149E-1,1.3034777E-1,1.063823E-1,1.4661817E-1,1.6625829E-1,2.066237E-1,2.1289253E-1,1.7762662E-1,2.5001487E-1,2.201784E-1,1.9305241E-1,2.438277E-1,2.5357062E-1,2.9616264E-1,3.74331E-1,3.088306E-1,3.557461E-1,4.062193E-1,2.3517409E-1,2.6590997E-1,2.8563493E-1,3.1864414E-1,3.824738E-1,4.4677088E-1,4.4013044E-1,5.079078E-1,3.9398015E-1,3.5915226E-1,2.5510383E-1,4.9338946E-1,1.5164243E-1,5.5235904E-1],"categories":[],"categories_nodes":[],"categories_segments":[],"categories_sizes":[],"default_left":[0,0,0,0,0,0,0,0,0,0,0,0,0,0,0,0,0,0,0,0,0,0,0,0,0,0,0,0,0,0,0,0,0,0,0,0,0,0,0,0,0,0,0,0,0,0,0,0,0,0,0,0,0,0,0,0,0,0,0,0,0,0,0,0,0,0,0,0,0,0,0,0,0,0,0,0,0,0,0,0,0,0,0,0,0,0,0,0,0,0,0,0,0,0,0,0,0,0,0,0,0,0,0,0,0,0,0,0,0,0,0,0,0,0,0,0,0,0,0,0,0,0,0,0,0,0,0,0,0,0,0,0,0,0,0,0,0,0,0,0,0,0,0,0,0,0,0,0,0,0,0,0,0,0,0,0,0,0,0,0,0,0,0,0,0,0,0,0,0,0,0,0,0,0,0,0,0,0,0,0,0,0,0,0,0,0,0,0,0,0,0,0,0,0,0],"id":1,"left_children":[1,3,5,7,9,11,13,15,17,19,21,23,25,27,29,31,33,35,37,39,41,43,45,47,49,51,53,55,57,59,61,-1,-1,-1,-1,63,-1,65,67,69,71,73,75,77,79,81,83,85,87,89,91,93,95,97,99,101,103,105,107,109,111,113,115,-1,-1,-1,-1,117,119,121,123,125,127,129,131,133,135,137,139,141,143,145,147,149,151,153,155,157,159,161,163,165,167,169,171,173,175,177,179,181,183,185,187,189,-1,-1,-1,191,193,-1,-1,-1,-1,-1,-1,-1,-1,-1,-1,-1,-1,-1,-1,-1,-1,-1,-1,-1,-1,-1,-1,-1,-1,-1,-1,-1,-1,-1,-1,-1,-1,-1,-1,-1,-1,-1,-1,-1,-1,-1,-1,-1,-1,-1,-1,-1,-1,-1,-1,-1,-1,-1,-1,-1,-1,-1,-1,-1,-1,-1,-1,-1,-1,-1,-1,-1,-1,-1,-1,-1,-1,-1,-1,-1,-1,-1,-1,-1,-1,-1,-1,-1,-1,-1,-1],"loss_changes":[1.7373038E6,3.1312E5,2.8038975E5,6.584294E4,4.590417E4,4.1453703E4,5.0989875E4,1.30430625E4,1.07329375E4,6.2670156E3,5.4842207E3,5.2886875E3,5.250047E3,7.1273125E3,9.66325E3,1.351125E3,1.4215E3,1.2800312E3,1.5659688E3,5.992969E2,1.0197656E3,6.0187695E2,7.7940063E2,8.100896E2,6.166094E2,7.925625E2,9.511797E2,1.1088438E3,8.763594E2,6.739375E2,1.6563125E3,0E0,0E0,0E0,0E0,7.684375E1,0E0,7.8015625E1,1.1169531E2,6.83125E1,1.0608594E2,1.3277734E2,2.1294922E2,1.7860742E2,2.110957E2,2.788015E2,2.4289966E2,2.7158774E2,3.3643408E2,2.4053369E2,5.077461E2,2.5045117E2,5.0933203E2,4.3409375E2,1.6426953E2,5.836094E2,4.6651562E2,2.375625E2,1.5709375E2,2.5026562E2,1.8310938E2,2.5921875E1,6.761719E1,0E0,0E0,0E0,0E0,2.31875E1,2.8023438E1,3.6845703E0,3.598828E1,1.9281738E1,4.0578125E1,4.1843506E1,1.1363281E2,5.1469482E1,8.750781E1,1.5501465E1,8.609375E1,8.2788635E1,7.302539E1,6.050691E1,1.0773779E2,9.8699875E1,1.2829065E2,8.8998535E1,1.5112167E2,5.489502E1,1.4550244E2,2.7524658E1,5.9802246E1,9.3043945E1,1.4277441E2,5.617871E1,2.4672852E1,1.1026172E2,1.5761523E2,1.91E2,1.3260938E2,6.868164E0,3.4742188E1,1.6642578E2,1.2467969E2,7.1992188E0,0E0,0E0,0E0,1.5796875E1,6.3320312E0,0E0,0E0,0E0,0E0,0E0,0E0,0E0,0E0,0E0,0E0,0E0,0E0,0E0,0E0,0E0,0E0,0E0,0E0,0E0,0E0,0E0,0E0,0E0,0E0,0E0,0E0,0E0,0E0,0E0,0E0,0E0,0E0,0E0,0E0,0E0,0E0,0E0,0E0,0E0,0E0,0E0,0E0,0E0,0E0,0E0,0E0,0E0,0E0,0E0,0E0,0E0,0E0,0E0,0E0,0E0,0E0,0E0,0E0,0E0,0E0,0E0,0E0,0E0,0E0,0E0,0E0,0E0,0E0,0E0,0E0,0E0,0E0,0E0,0E0,0E0,0E0,0E0,0E0,0E0,0E0,0E0,0E0,0E0,0E0,0E0,0E0],"parents":[2147483647,0,0,1,1,2,2,3,3,4,4,5,5,6,6,7,7,8,8,9,9,10,10,11,11,12,12,13,13,14,14,15,15,16,16,17,17,18,18,19,19,20,20,21,21,22,22,23,23,24,24,25,25,26,26,27,27,28,28,29,29,30,30,35,35,37,37,38,38,39,39,40,40,41,41,42,42,43,43,44,44,45,45,46,46,47,47,48,48,49,49,50,50,51,51,52,52,53,53,54,54,55,55,56,56,57,57,58,58,59,59,60,60,61,61,62,62,67,67,68,68,69,69,70,70,71,71,72,72,73,73,74,74,75,75,76,76,77,77,78,78,79,79,80,80,81,81,82,82,83,83,84,84,85,85,86,86,87,87,88,88,89,89,90,90,91,91,92,92,93,93,94,94,95,95,96,96,97,97,98,98,99,99,100,100,101,101,102,102,103,103,107,107,108,108],"right_children":[2,4,6,8,10,12,14,16,18,20,22,24,26,28,30,32,34,36,38,40,42,44,46,48,50,52,54,56,58,60,62,-1,-1,-1,-1,64,-1,66,68,70,72,74,76,78,80,82,84,86,88,90,92,94,96,98,100,102,104,106,108,110,112,114,116,-1,-1,-1,-1,118,120,122,124,126,128,130,132,134,136,138,140,142,144,146,148,150,152,154,156,158,160,162,164,166,168,170,172,174,176,178,180,182,184,186,188,190,-1,-1,-1,192,194,-1,-1,-1,-1,-1,-1,-1,-1,-1,-1,-1,-1,-1,-1,-1,-1,-1,-1,-1,-1,-1,-1,-1,-1,-1,-1,-1,-1,-1,-1,-1,-1,-1,-1,-1,-1,-1,-1,-1,-1,-1,-1,-1,-1,-1,-1,-1,-1,-1,-1,-1,-1,-1,-1,-1,-1,-1,-1,-1,-1,-1,-1,-1,-1,-1,-1,-1,-1,-1,-1,-1,-1,-1,-1,-1,-1,-1,-1,-1,-1,-1,-1,-1,-1,-1,-1],"split_conditions":[9.1E0,6.49E0,1.703E1,-5.53E0,8.84E0,1.299E1,2.237E1,-1.075E1,-2.13E0,7.52E0,7.04E0,1.121E1,1.495E1,1.984E1,2.608E1,-1.48E1,3.45E0,-3.46E0,5.86E0,6.98E0,8.22E0,9.39E0,8.02E0,1.016E1,1.2246469E-16,1.2246469E-16,1.7E1,1.5E1,1.6E1,2.385E1,2.86E1,-1.2316245E0,-1.0244188E0,-8.591901E-1,-7.3905593E-1,-4.61E0,-5.606553E-1,5.6E0,6.21E0,1E-1,1.21E0,2.32E0,3.43E0,3.53E0,5.84E0,6.26E0,7.83E0,8.71E0,9.6E0,1.198E1,5E0,1.403E1,5E0,1.594E1,1.563E1,1.829E1,1.829E1,2.086E1,2.127E1,1.6E1,1.7E1,-2.5881904E-1,3.026E1,-6.693826E-1,-6.2144345E-1,-5.076775E-1,-4.7318345E-1,-8.9E-1,-1.6E-1,8.309845E-1,1.47E0,2.6155477E0,7.22E0,3.747202E0,7.81E0,3.307425E0,4.57E0,2.9590333E0,1.5E1,3.791686E0,1.5E1,4.387099E0,1.5E1,3.0852954E0,8.54E0,9.81875E0,8.660254E-1,3.78E0,1.2246469E-16,3.4767413E0,-7.0710677E-1,1.198E1,1.206E1,-5E-1,-5E-1,1.413E1,1.385E1,1.394E1,8.660254E-1,6.52E1,1.648E1,5E0,5E0,1.7E1,4.314551E-1,5.569476E-1,6.1281866E-1,9.727E2,1.4482831E0,6.85062E-1,6.0832125E-1,7.5615424E-1,6.8104213E-1,8.735327E-1,7.870018E-1,9.4561577E-1,1.0695833E0,-3.889011E-1,-4.424425E-1,-3.5036752E-1,-4.0944466E-1,-3.046001E-1,-1.1932675E-1,-3.8180855E-1,-3.5254693E-1,-2.9261267E-1,-2.2561303E-1,-3.3706072E-1,-3.117056E-1,-2.2729747E-1,-1.4777975E-1,-2.8563794E-1,-2.5615004E-1,-1.6949062E-1,-9.43523E-2,-2.3054002E-1,-2.0271662E-1,-1.1280769E-1,-4.8485693E-2,-1.5891431E-1,-1.8661685E-1,-9.333943E-2,-2.2723945E-2,-1.19431034E-1,-1.4536972E-1,-1.855455E-2,7.002544E-2,-7.015856E-2,-9.789443E-2,-1.04966555E-2,4.6892684E-2,-5.1030256E-2,-2.2090951E-2,4.931771E-2,1.1178171E-1,9.962272E-3,5.081306E-2,1.5949604E-1,1.02822445E-1,5.207174E-2,8.352869E-2,1.0045099E-1,7.4295335E-2,1.7140149E-1,1.3034777E-1,1.063823E-1,1.4661817E-1,1.6625829E-1,2.066237E-1,2.1289253E-1,1.7762662E-1,2.5001487E-1,2.201784E-1,1.9305241E-1,2.438277E-1,2.5357062E-1,2.9616264E-1,3.74331E-1,3.088306E-1,3.557461E-1,4.062193E-1,2.3517409E-1,2.6590997E-1,2.8563493E-1,3.1864414E-1,3.824738E-1,4.4677088E-1,4.4013044E-1,5.079078E-1,3.9398015E-1,3.5915226E-1,2.5510383E-1,4.9338946E-1,1.5164243E-1,5.5235904E-1],"split_indices":[1,5,1,1,5,1,1,1,1,5,1,1,1,1,1,1,5,1,5,5,5,5,1,1,20,20,14,14,14,1,1,0,0,0,0,1,0,5,5,26,26,26,26,26,26,26,26,26,26,1,14,1,14,1,1,1,1,1,1,14,14,21,1,0,0,0,0,26,26,24,1,33,5,33,5,33,1,35,14,33,14,33,14,33,1,32,20,12,20,33,21,1,1,21,21,1,1,26,20,36,1,14,14,14,0,0,0,0,33,0,0,0,0,0,0,0,0,0,0,0,0,0,0,0,0,0,0,0,0,0,0,0,0,0,0,0,0,0,0,0,0,0,0,0,0,0,0,0,0,0,0,0,0,0,0,0,0,0,0,0,0,0,0,0,0,0,0,0,0,0,0,0,0,0,0,0,0,0,0,0,0,0,0,0,0,0,0,0,0,0,0,0,0,0,0],"split_type":[0,0,0,0,0,0,0,0,0,0,0,0,0,0,0,0,0,0,0,0,0,0,0,0,0,0,0,0,0,0,0,0,0,0,0,0,0,0,0,0,0,0,0,0,0,0,0,0,0,0,0,0,0,0,0,0,0,0,0,0,0,0,0,0,0,0,0,0,0,0,0,0,0,0,0,0,0,0,0,0,0,0,0,0,0,0,0,0,0,0,0,0,0,0,0,0,0,0,0,0,0,0,0,0,0,0,0,0,0,0,0,0,0,0,0,0,0,0,0,0,0,0,0,0,0,0,0,0,0,0,0,0,0,0,0,0,0,0,0,0,0,0,0,0,0,0,0,0,0,0,0,0,0,0,0,0,0,0,0,0,0,0,0,0,0,0,0,0,0,0,0,0,0,0,0,0,0,0,0,0,0,0,0,0,0,0,0,0,0,0,0,0,0,0,0],"sum_hessian":[3.9284E4,1.9549E4,1.9735E4,7.067E3,1.2482E4,1.2416E4,7.319E3,1.696E3,5.371E3,6.005E3,6.477E3,6.27E3,6.146E3,4.999E3,2.32E3,4.7E2,1.226E3,2.146E3,3.225E3,2.626E3,3.379E3,2.955E3,3.522E3,3.327E3,2.943E3,3.069E3,3.077E3,3.003E3,1.996E3,1.528E3,7.92E2,1.62E2,3.08E2,4.64E2,7.62E2,1.078E3,1.068E3,1.536E3,1.689E3,1.224E3,1.402E3,1.831E3,1.548E3,1.41E3,1.545E3,1.67E3,1.852E3,1.641E3,1.686E3,1.354E3,1.589E3,1.514E3,1.555E3,2.055E3,1.022E3,1.648E3,1.355E3,1.207E3,7.89E2,7.51E2,7.77E2,4.85E2,3.07E2,4.51E2,6.27E2,9.22E2,6.14E2,9.26E2,7.63E2,6.3E1,1.161E3,1.01E2,1.301E3,1.25E2,1.706E3,1.03E2,1.445E3,4.8E1,1.362E3,2.73E2,1.272E3,1.2E2,1.55E3,3.08E2,1.544E3,2.38E2,1.403E3,1.99E2,1.487E3,5.62E2,7.92E2,6.25E2,9.64E2,8.2E2,6.94E2,5.12E2,1.043E3,1.024E3,1.031E3,3.41E2,6.81E2,8.26E2,8.22E2,6.53E2,7.02E2,5.6E2,6.47E2,4.93E2,2.96E2,4.58E2,2.93E2,5.1E2,2.67E2,3.34E2,1.51E2,1.54E2,1.53E2,9.6E1,8.3E2,7.3E1,6.9E2,6.1E1,2E0,7.49E2,4.12E2,4.9E1,5.2E1,5.63E2,7.38E2,9.5E1,3E1,6.79E2,1.027E3,5.6E1,4.7E1,5.51E2,8.94E2,1.4E1,3.4E1,8.59E2,5.03E2,2.21E2,5.2E1,8.05E2,4.67E2,9.7E1,2.3E1,9.89E2,5.61E2,1.82E2,1.26E2,7.16E2,8.28E2,1.38E2,1E2,1.12E3,2.83E2,1.18E2,8.1E1,7.48E2,7.39E2,4.06E2,1.56E2,1.16E2,6.76E2,2.71E2,3.54E2,4.54E2,5.1E2,1.79E2,6.41E2,1.67E2,5.27E2,3E2,2.12E2,4.78E2,5.65E2,1.59E2,8.65E2,7.94E2,2.37E2,1.59E2,1.82E2,4.2E2,2.61E2,1.88E2,6.38E2,1.47E2,6.75E2,1.71E2,4.82E2,4E0,4.89E2,1E0,2.95E2],"tree_param":{"num_deleted":"0","num_feature":"38","num_nodes":"195","size_leaf_vector":"1"}},{"base_weights":[3.506717E-2,-6.3377714E0,6.2674847E0,-1.1392529E1,-3.479886E0,3.563019E0,1.0980265E1,-1.6227917E1,-9.698414E0,-5.4779325E0,-1.819302E0,1.7951117E0,5.3236423E0,9.363214E0,1.4830475E1,-2.0009708E1,-1.4340783E1,-1.1147316E1,-8.545053E0,-6.499242E0,-4.6132655E0,-2.7799273E0,-9.500392E-1,8.9816016E-1,2.6391869E0,4.3797226E0,6.2082543E0,8.372859E0,1.0718056E1,1.353541E1,1.79348E1,-1.1747838E0,-1.876951E1,-7.7134204E-1,-6.842019E-1,-1.1983769E1,-1.0409408E1,-9.129651E0,-7.8871684E0,-6.9919066E0,-6.0590873E0,-5.011181E0,-4.041232E0,-3.2250726E0,-2.27892E0,-1.4213979E0,-5.2646637E-1,4.6334243E-1,1.3306842E0,2.2308335E0,3.0818863E0,3.8874729E0,4.8617835E0,5.7057643E0,6.815978E0,7.8482323E0,9.10641E0,1.1143099E1,9.721353E0,1.282421E1,1.45518675E1,1.7004875E1,1.0174414E0,-1.0175608E0,-8.9457464E-1,-6.173686E-1,-5.7335526E-1,-5.36374E-1,-5.035328E-1,-4.6932626E-1,-4.3604466E-1,-7.5436997E0,-4.051237E-1,-6.000816E0,-7.070079E0,-4.8425465E0,-6.1501784E0,-4.657867E0,-5.223174E0,-2.0845513E0,-4.11894E0,-2.2499366E0,-3.3506556E0,-1.4312104E0,-2.4484024E0,-1.9426068E-2,-1.5252353E0,3.018043E-1,-6.933759E-1,1.5167592E0,3.0842927E-1,2.5268357E0,1.169206E0,1.7642318E0,2.61708E0,3.8883939E0,2.8376925E0,3.4881074E0,4.350409E0,5.2430325E0,4.045562E0,5.3504167E0,6.3654995E0,7.148035E0,5.869122E0,7.323715E0,8.519444E0,8.569354E0,9.87895E0,1.0670872E1,5.943811E-1,9.205129E0,5.163287E-1,6.640956E-1,5.9609926E-1,1.3981522E1,7.739164E-1,8.754617E-1,7.867097E-1,-3.8271484E-1,-3.1511676E-1,-3.216957E-1,-2.517277E-1,-3.634419E-1,-3.3573174E-1,-1.9932705E-1,-2.6968396E-1,-3.1842467E-1,-2.944475E-1,-2.6641548E-1,-2.1751802E-1,-2.7505234E-1,-2.5010994E-1,-1.4295626E-1,-7.125312E-2,-2.2024706E-1,-1.9331266E-1,-1.3106817E-1,-6.572985E-2,-1.8130173E-1,-1.5634379E-1,-8.6655766E-2,-2.8774235E-2,-1.3271506E-1,-1.08273864E-1,-4.8420817E-2,2.4306638E-2,-8.843504E-2,-6.1982304E-2,-1.2178685E-2,4.6738315E-2,-5.0420314E-2,-2.4718028E-2,1.172142E-1,5.0119262E-2,9.790405E-3,5.6795985E-2,9.674445E-2,1.5584975E-1,4.4797417E-2,7.278287E-2,1.162039E-1,8.253678E-2,1.5263826E-1,9.881452E-2,1.5327978E-1,2.097713E-1,1.3459316E-1,1.7563964E-1,2.0005667E-1,1.6753887E-1,2.3740196E-1,2.0913282E-1,2.4067803E-1,2.835339E-1,1.7312212E-1,2.2212242E-1,2.915267E-1,2.5612795E-1,3.451836E-1,3.0745035E-1,3.3117905E-1,3.8474396E-1,2.721662E-1,3.2196012E-1,3.9314264E-1,3.502117E-1,4.514707E-1,4.0940887E-1,4.4246632E-1,3.779363E-1,5.026665E-1,4.307476E-1,5.0243706E-1,5.557955E-1,4.60919E-1,1.1120093E-1,2.8128293E-1,7.00501E-1],"categories":[],"categories_nodes":[],"categories_segments":[],"categories_sizes":[],"default_left":[0,0,0,0,0,0,0,0,0,0,0,0,0,0,0,0,0,0,0,0,0,0,0,0,0,0,0,0,0,0,0,0,0,0,0,0,0,0,0,0,0,0,0,0,0,0,0,0,0,0,0,0,0,0,0,0,0,0,0,0,0,0,0,0,0,0,0,0,0,0,0,0,0,0,0,0,0,0,0,0,0,0,0,0,0,0,0,0,0,0,0,0,0,0,0,0,0,0,0,0,0,0,0,0,0,0,0,0,0,0,0,0,0,0,0,0,0,0,0,0,0,0,0,0,0,0,0,0,0,0,0,0,0,0,0,0,0,0,0,0,0,0,0,0,0,0,0,0,0,0,0,0,0,0,0,0,0,0,0,0,0,0,0,0,0,0,0,0,0,0,0,0,0,0,0,0,0,0,0,0,0,0,0,0,0,0,0,0,0,0,0,0,0,0,0,0,0,0,0],"id":2,"left_children":[1,3,5,7,9,11,13,15,17,19,21,23,25,27,29,31,33,35,37,39,41,43,45,47,49,51,53,55,57,59,61,-1,63,-1,-1,65,67,69,71,73,75,77,79,81,83,85,87,89,91,93,95,97,99,101,103,105,107,109,111,113,115,117,-1,-1,-1,-1,-1,-1,-1,-1,-1,119,-1,121,123,125,127,129,131,133,135,137,139,141,143,145,147,149,151,153,155,157,159,161,163,165,167,169,171,173,175,177,179,181,183,185,187,189,191,193,-1,195,-1,-1,-1,197,-1,-1,-1,-1,-1,-1,-1,-1,-1,-1,-1,-1,-1,-1,-1,-1,-1,-1,-1,-1,-1,-1,-1,-1,-1,-1,-1,-1,-1,-1,-1,-1,-1,-1,-1,-1,-1,-1,-1,-1,-1,-1,-1,-1,-1,-1,-1,-1,-1,-1,-1,-1,-1,-1,-1,-1,-1,-1,-1,-1,-1,-1,-1,-1,-1,-1,-1,-1,-1,-1,-1,-1,-1,-1,-1,-1,-1,-1,-1,-1,-1,-1,-1],"loss_changes":[1.5581049E6,2.8015344E5,2.5274344E5,5.7225438E4,4.1105734E4,3.921878E4,4.488125E4,1.2673375E4,8.577844E3,4.936547E3,5.649715E3,4.759754E3,5.2450156E3,6.746625E3,8.348594E3,2.161625E3,6.555156E2,1.2930312E3,1.041E3,5.162344E2,6.737656E2,7.0966406E2,7.090242E2,5.731821E2,5.788457E2,7.0675E2,9.5571875E2,1.0630469E3,8.016406E2,9.0640625E2,1.0592656E3,0E0,2.5945312E2,0E0,0E0,5.940625E1,2.4265625E1,7.836719E1,4.0109375E1,5.123828E1,1.2181641E2,1.1004297E2,1.8238672E2,2.0064453E2,2.1430176E2,2.4483105E2,2.5928265E2,2.4806769E2,2.923755E2,2.997793E2,2.9462305E2,2.654746E2,4.583203E2,3.8534766E2,4.1991406E2,5.452656E2,4.227578E2,4.0017188E2,1.0802344E2,2.1248438E2,1.0855469E2,1.803125E1,0E0,0E0,0E0,0E0,0E0,0E0,0E0,0E0,0E0,2.6171875E1,0E0,7.364502E0,2.9964844E1,2.5675293E1,3.4867188E1,1.17424805E2,4.082422E1,2.1466705E1,7.0197266E1,6.4993835E1,8.134375E1,6.488135E1,6.776904E1,5.6603912E1,1.06693115E2,1.089668E2,9.730707E1,8.065329E1,1.2363101E2,5.7200073E1,1.0428882E2,4.4962646E1,2.5137305E2,7.757861E1,1.0819141E2,4.4365234E1,2.6765625E1,1.6499805E2,9.9177246E1,9.802344E1,2.9902344E1,2.596289E2,5.888965E1,1.1304297E2,5.2933594E1,1.393789E2,2.25E1,1.4496094E2,0E0,1.2798828E1,0E0,0E0,0E0,1.4296875E1,0E0,0E0,0E0,0E0,0E0,0E0,0E0,0E0,0E0,0E0,0E0,0E0,0E0,0E0,0E0,0E0,0E0,0E0,0E0,0E0,0E0,0E0,0E0,0E0,0E0,0E0,0E0,0E0,0E0,0E0,0E0,0E0,0E0,0E0,0E0,0E0,0E0,0E0,0E0,0E0,0E0,0E0,0E0,0E0,0E0,0E0,0E0,0E0,0E0,0E0,0E0,0E0,0E0,0E0,0E0,0E0,0E0,0E0,0E0,0E0,0E0,0E0,0E0,0E0,0E0,0E0,0E0,0E0,0E0,0E0,0E0,0E0,0E0,0E0,0E0,0E0,0E0,0E0,0E0,0E0,0E0,0E0,0E0],"parents":[2147483647,0,0,1,1,2,2,3,3,4,4,5,5,6,6,7,7,8,8,9,9,10,10,11,11,12,12,13,13,14,14,15,15,16,16,17,17,18,18,19,19,20,20,21,21,22,22,23,23,24,24,25,25,26,26,27,27,28,28,29,29,30,30,32,32,35,35,36,36,37,37,38,38,39,39,40,40,41,41,42,42,43,43,44,44,45,45,46,46,47,47,48,48,49,49,50,50,51,51,52,52,53,53,54,54,55,55,56,56,57,57,58,58,59,59,60,60,61,61,71,71,73,73,74,74,75,75,76,76,77,77,78,78,79,79,80,80,81,81,82,82,83,83,84,84,85,85,86,86,87,87,88,88,89,89,90,90,91,91,92,92,93,93,94,94,95,95,96,96,97,97,98,98,99,99,100,100,101,101,102,102,103,103,104,104,105,105,106,106,107,107,108,108,109,109,111,111,115,115],"right_children":[2,4,6,8,10,12,14,16,18,20,22,24,26,28,30,32,34,36,38,40,42,44,46,48,50,52,54,56,58,60,62,-1,64,-1,-1,66,68,70,72,74,76,78,80,82,84,86,88,90,92,94,96,98,100,102,104,106,108,110,112,114,116,118,-1,-1,-1,-1,-1,-1,-1,-1,-1,120,-1,122,124,126,128,130,132,134,136,138,140,142,144,146,148,150,152,154,156,158,160,162,164,166,168,170,172,174,176,178,180,182,184,186,188,190,192,194,-1,196,-1,-1,-1,198,-1,-1,-1,-1,-1,-1,-1,-1,-1,-1,-1,-1,-1,-1,-1,-1,-1,-1,-1,-1,-1,-1,-1,-1,-1,-1,-1,-1,-1,-1,-1,-1,-1,-1,-1,-1,-1,-1,-1,-1,-1,-1,-1,-1,-1,-1,-1,-1,-1,-1,-1,-1,-1,-1,-1,-1,-1,-1,-1,-1,-1,-1,-1,-1,-1,-1,-1,-1,-1,-1,-1,-1,-1,-1,-1,-1,-1,-1,-1,-1,-1,-1,-1],"split_conditions":[9.1E0,8.4E-1,1.715E1,-5.2E0,4.98E0,1.299E1,2.263E1,-9.6E0,-1.79E0,2.89E0,7.04E0,1.102E1,1.495E1,1.984E1,2.675E1,-1.48E1,-7.09E0,-3.23E0,-2.8E-1,1.85E0,4.14E0,6.06E0,8.02E0,1.007E1,1.206E1,1.2246469E-16,1.2246469E-16,1.2246469E-16,-1.8369701E-16,2.459E1,3.026E1,-1.1747838E0,-1.245E1,-7.7134204E-1,-6.842019E-1,-4.03E0,-2.48E0,-8.9E-1,-1.8369701E-16,3.3E-1,1.21E0,-1.8369701E-16,2.89E0,4.67E0,5.84E0,6.26E0,7.83E0,8.62E0,9.49E0,1.2246469E-16,1.197E1,1.403E1,5E-1,1.638E1,5E-1,1.857E1,1.857E1,2.146E1,2.106E1,-2.5881904E-1,-2.5881904E-1,-2.5881904E-1,1.0174414E0,-1.0175608E0,-8.9457464E-1,-6.173686E-1,-5.7335526E-1,-5.36374E-1,-5.035328E-1,-4.6932626E-1,-4.3604466E-1,3.4966586E0,-4.051237E-1,3.2681394E0,1.47E0,2.18E0,2.43E0,-2.5881904E-1,3.43E0,2.7854166E0,1.2246469E-16,3.5207014E0,5.48E0,3.4767413E0,6.65E0,5E-1,7.56E0,2.862485E0,8.44E0,2.48E0,9.659258E-1,3.4087298E0,1.2246469E-16,-7.0710677E-1,5E-1,2.5881904E-1,8.660254E-1,-5E-1,-2.5881904E-1,1.394E1,1.376E1,-2.5881904E-1,-5E-1,1.605E1,1.616E1,-2.5881904E-1,-2.5881904E-1,5E-1,5E-1,-2.5881904E-1,5.943811E-1,2.9625E2,5.163287E-1,6.640956E-1,5.9609926E-1,-9.998766E-1,7.739164E-1,8.754617E-1,7.867097E-1,-3.8271484E-1,-3.1511676E-1,-3.216957E-1,-2.517277E-1,-3.634419E-1,-3.3573174E-1,-1.9932705E-1,-2.6968396E-1,-3.1842467E-1,-2.944475E-1,-2.6641548E-1,-2.1751802E-1,-2.7505234E-1,-2.5010994E-1,-1.4295626E-1,-7.125312E-2,-2.2024706E-1,-1.9331266E-1,-1.3106817E-1,-6.572985E-2,-1.8130173E-1,-1.5634379E-1,-8.6655766E-2,-2.8774235E-2,-1.3271506E-1,-1.08273864E-1,-4.8420817E-2,2.4306638E-2,-8.843504E-2,-6.1982304E-2,-1.2178685E-2,4.6738315E-2,-5.0420314E-2,-2.4718028E-2,1.172142E-1,5.0119262E-2,9.790405E-3,5.6795985E-2,9.674445E-2,1.5584975E-1,4.4797417E-2,7.278287E-2,1.162039E-1,8.253678E-2,1.5263826E-1,9.881452E-2,1.5327978E-1,2.097713E-1,1.3459316E-1,1.7563964E-1,2.0005667E-1,1.6753887E-1,2.3740196E-1,2.0913282E-1,2.4067803E-1,2.835339E-1,1.7312212E-1,2.2212242E-1,2.915267E-1,2.5612795E-1,3.451836E-1,3.0745035E-1,3.3117905E-1,3.8474396E-1,2.721662E-1,3.2196012E-1,3.9314264E-1,3.502117E-1,4.514707E-1,4.0940887E-1,4.4246632E-1,3.779363E-1,5.026665E-1,4.307476E-1,5.0243706E-1,5.557955E-1,4.60919E-1,1.1120093E-1,2.8128293E-1,7.00501E-1],"split_indices":[1,1,1,1,1,1,1,1,1,1,1,1,1,1,1,1,1,1,1,1,1,1,1,1,1,20,20,20,21,1,1,0,1,0,0,1,1,1,21,26,26,21,26,26,26,26,26,26,26,20,26,1,21,1,21,1,1,1,1,21,20,21,0,0,0,0,0,0,0,0,0,33,0,33,1,12,1,20,1,32,20,33,1,33,1,20,1,33,1,12,20,33,20,21,21,20,20,21,21,1,1,21,21,1,1,21,21,21,21,20,0,2,0,0,0,24,0,0,0,0,0,0,0,0,0,0,0,0,0,0,0,0,0,0,0,0,0,0,0,0,0,0,0,0,0,0,0,0,0,0,0,0,0,0,0,0,0,0,0,0,0,0,0,0,0,0,0,0,0,0,0,0,0,0,0,0,0,0,0,0,0,0,0,0,0,0,0,0,0,0,0,0,0,0,0,0,0,0,0],"split_type":[0,0,0,0,0,0,0,0,0,0,0,0,0,0,0,0,0,0,0,0,0,0,0,0,0,0,0,0,0,0,0,0,0,0,0,0,0,0,0,0,0,0,0,0,0,0,0,0,0,0,0,0,0,0,0,0,0,0,0,0,0,0,0,0,0,0,0,0,0,0,0,0,0,0,0,0,0,0,0,0,0,0,0,0,0,0,0,0,0,0,0,0,0,0,0,0,0,0,0,0,0,0,0,0,0,0,0,0,0,0,0,0,0,0,0,0,0,0,0,0,0,0,0,0,0,0,0,0,0,0,0,0,0,0,0,0,0,0,0,0,0,0,0,0,0,0,0,0,0,0,0,0,0,0,0,0,0,0,0,0,0,0,0,0,0,0,0,0,0,0,0,0,0,0,0,0,0,0,0,0,0,0,0,0,0,0,0,0,0,0,0,0,0,0,0,0,0,0,0],"sum_hessian":[3.9227E4,1.9395E4,1.9832E4,7.004E3,1.2391E4,1.2602E4,7.23E3,1.815E3,5.189E3,5.623E3,6.768E3,6.289E3,6.313E3,5.094E3,2.136E3,6.01E2,1.214E3,2.296E3,2.893E3,2.575E3,3.048E3,3.214E3,3.554E3,3.05E3,3.239E3,3.057E3,3.256E3,2.947E3,2.147E3,1.511E3,6.25E2,1.53E2,4.48E2,4.49E2,7.65E2,1.069E3,1.227E3,1.525E3,1.368E3,1.208E3,1.367E3,1.793E3,1.255E3,1.699E3,1.515E3,1.681E3,1.873E3,1.522E3,1.528E3,1.688E3,1.551E3,1.517E3,1.54E3,1.788E3,1.468E3,1.725E3,1.222E3,1.498E3,6.49E2,8.97E2,6.14E2,4.57E2,1.68E2,1.52E2,2.96E2,6.14E2,4.55E2,6.17E2,6.1E2,9.23E2,6.02E2,5.41E2,8.27E2,9.4E1,1.114E3,9.9E1,1.268E3,6.81E2,1.112E3,4.9E1,1.206E3,1.96E2,1.503E3,2.54E2,1.261E3,1.16E2,1.565E3,3.14E2,1.559E3,1.94E2,1.328E3,1.8E2,1.348E3,7.67E2,9.21E2,3.57E2,1.194E3,8.19E2,6.98E2,1.046E3,4.94E2,1.168E3,6.2E2,1.082E3,3.86E2,9.75E2,7.5E2,7.28E2,4.94E2,9.26E2,5.72E2,3.59E2,2.9E2,5.86E2,3.11E2,3.9E2,2.24E2,3.18E2,1.39E2,4.92E2,4.9E1,6.1E1,3.3E1,7.02E2,4.12E2,4.2E1,5.7E1,6.78E2,5.9E2,2.09E2,4.72E2,4.82E2,6.3E2,2.1E1,2.8E1,5.58E2,6.48E2,1.39E2,5.7E1,6.67E2,8.36E2,1.87E2,6.7E1,7.25E2,5.36E2,4E1,7.6E1,8.42E2,7.23E2,1.69E2,1.45E2,6.02E2,9.57E2,7.3E1,1.21E2,1.17E3,1.58E2,9.2E1,8.8E1,6.92E2,6.56E2,1.26E2,6.41E2,5.46E2,3.75E2,1E2,2.57E2,9.86E2,2.08E2,1.67E2,6.52E2,1.99E2,4.99E2,5.28E2,5.18E2,2.04E2,2.9E2,3.68E2,8E2,1.69E2,4.51E2,5.59E2,5.23E2,2.27E2,1.59E2,3.54E2,6.21E2,2.85E2,4.65E2,5.64E2,1.64E2,4.28E2,6.6E1,3.96E2,5.3E2,3.58E2,1E0,2E0,3.88E2],"tree_param":{"num_deleted":"0","num_feature":"38","num_nodes":"199","size_leaf_vector":"1"}},{"base_weights":[-1.6086098E-2,-6.193422E0,5.8207746E0,-1.1086625E1,-3.5863147E0,3.2126722E0,1.0354548E1,-1.600667E1,-9.599037E0,-5.51394E0,-1.9595361E0,1.4463748E0,4.882533E0,8.664116E0,1.3691545E1,-1.9755768E1,-1.437751E1,-1.130076E1,-8.608672E0,-6.435562E0,-4.6362853E0,-2.9381564E0,-1.1521472E0,6.273804E-1,2.3159747E0,4.011301E0,5.80889E0,7.7141304E0,9.758269E0,1.2611783E1,1.6943726E1,-1.1075234E0,-9.249179E-1,-7.972566E-1,-6.867095E-1,-5.9839386E-1,-5.303111E-1,-9.233964E0,-7.8987536E0,-6.96877E0,-5.9857206E0,-5.124435E0,-4.2817E0,-3.281786E0,-2.4238217E0,-1.661623E0,-7.3421097E-1,1.1756651E-1,1.0085635E0,1.8748345E0,2.691894E0,3.5394545E0,4.4821715E0,6.200114E0,5.14224E0,8.111234E0,6.889642E0,1.0215755E1,8.81431E0,1.1731033E1,1.3477094E1,1.6096577E1,9.6927494E-1,-4.8183423E-1,-4.450545E-1,-4.0923905E-1,-7.6068726E0,-3.618406E-1,-6.712135E0,-4.796216E0,-6.05601E0,-2.717216E-1,-4.86224E0,-4.6223235E0,-3.9831607E0,-3.590145E0,-3.0084367E0,-2.8010914E0,-2.1563666E0,-1.4102185E0,-2.1286247E0,-1.0988902E0,-4.0599513E-1,-2.5715455E-1,4.5475644E-1,5.9143513E-1,1.3786389E0,1.5570437E0,2.3374908E0,2.067493E0,3.1266813E0,3.0542893E0,3.933043E0,3.7068594E0,4.870323E0,5.6915584E0,6.6817026E0,4.4787703E0,5.422429E0,7.546689E0,8.516416E0,3.1602097E-1,3.610745E-1,4.8279926E-1,1.0788144E1,8.260383E0,4.662374E-1,6.0972726E-1,5.3543246E-1,1.3910801E1,6.2352425E-1,8.274078E-1,7.453912E-1,-3.4425595E-1,-3.855164E-1,-3.5152933E-1,-3.1519178E-1,-2.5959858E-1,-1.8475752E-1,-3.152158E-1,-2.898523E-1,-2.5807196E-1,-2.212998E-1,-2.3866868E-1,-2.107619E-1,-2.205668E-1,-1.7951986E-1,-1.9096702E-1,-1.6459243E-1,-1.7267434E-1,-1.3388056E-1,-1.0214664E-1,-1.4283927E-1,-1.302409E-1,-8.5033976E-2,-9.55616E-2,-5.5250216E-2,-1.273223E-1,-1.0127094E-1,-6.510714E-2,-4.296436E-2,-4.9358148E-2,-2.5283184E-3,1.1915547E-2,-1.7383626E-2,-9.100362E-3,4.513612E-2,1.9625468E-2,4.770423E-2,3.6023505E-2,9.062139E-2,6.4557515E-2,8.695533E-2,1.4457195E-1,1.1124022E-1,8.118931E-2,1.1988824E-1,1.352128E-1,1.7400722E-1,1.8298118E-1,1.4724302E-1,1.848986E-1,2.0831056E-1,1.5902922E-1,2.0976038E-1,2.1332625E-1,2.602017E-1,2.4255638E-1,2.9677963E-1,2.9330626E-1,3.4629306E-1,2.0963065E-1,2.356853E-1,2.5746426E-1,2.8753796E-1,3.6032507E-1,4.0918094E-1,3.7609026E-1,4.3452E-1,5.254354E-1,5.710634E-1,4.141932E-1,-8.348989E-3,6.633666E-1,7.256469E-1],"categories":[],"categories_nodes":[],"categories_segments":[],"categories_sizes":[],"default_left":[0,0,0,0,0,0,0,0,0,0,0,0,0,0,0,0,0,0,0,0,0,0,0,0,0,0,0,0,0,0,0,0,0,0,0,0,0,0,0,0,0,0,0,0,0,0,0,0,0,0,0,0,0,0,0,0,0,0,0,0,0,0,0,0,0,0,0,0,0,0,0,0,0,0,0,0,0,0,0,0,0,0,0,0,0,0,0,0,0,0,0,0,0,0,0,0,0,0,0,0,0,0,0,0,0,0,0,0,0,0,0,0,0,0,0,0,0,0,0,0,0,0,0,0,0,0,0,0,0,0,0,0,0,0,0,0,0,0,0,0,0,0,0,0,0,0,0,0,0,0,0,0,0,0,0,0,0,0,0,0,0,0,0,0,0,0,0,0,0,0,0,0,0,0,0,0,0,0,0,0,0,0,0,0,0],"id":3,"left_children":[1,3,5,7,9,11,13,15,17,19,21,23,25,27,29,31,33,35,37,39,41,43,45,47,49,51,53,55,57,59,61,-1,-1,-1,-1,-1,-1,63,65,67,69,71,73,75,77,79,81,83,85,87,89,91,93,95,97,99,101,103,105,107,109,111,-1,-1,-1,-1,113,-1,115,117,119,-1,121,123,125,127,129,131,133,135,137,139,141,143,145,147,149,151,153,155,157,159,161,163,165,167,169,171,173,175,177,-1,-1,-1,179,181,-1,-1,-1,183,-1,-1,-1,-1,-1,-1,-1,-1,-1,-1,-1,-1,-1,-1,-1,-1,-1,-1,-1,-1,-1,-1,-1,-1,-1,-1,-1,-1,-1,-1,-1,-1,-1,-1,-1,-1,-1,-1,-1,-1,-1,-1,-1,-1,-1,-1,-1,-1,-1,-1,-1,-1,-1,-1,-1,-1,-1,-1,-1,-1,-1,-1,-1,-1,-1,-1,-1,-1,-1,-1,-1,-1,-1,-1,-1],"loss_changes":[1.4122511E6,2.4271525E5,2.3810131E5,4.8254188E4,3.892353E4,3.7704875E4,4.1365E4,9.085469E3,8.465844E3,4.5661406E3,5.318121E3,4.4248535E3,5.2807812E3,5.0013125E3,8.4634375E3,9.813906E2,8.631094E2,7.376406E2,1.3546562E3,6.224453E2,4.8244922E2,5.3004297E2,7.849121E2,6.221339E2,4.947744E2,7.373242E2,7.9827344E2,8.015781E2,8.8853125E2,1.2586875E3,9.5596875E2,0E0,0E0,0E0,0E0,0E0,0E0,1.4265625E2,6.405469E1,3.816797E1,9.712109E1,7.281836E1,1.5384961E2,1.4277539E2,1.1736426E2,1.9224512E2,2.4253174E2,1.7334578E2,2.819884E2,2.00729E2,4.3469434E2,3.1223242E2,4.914336E2,4.5204688E2,1.956289E2,3.3877344E2,1.1642969E2,3.8284375E2,1.341875E2,3.0965625E2,2.3296875E2,7.8125E-1,0E0,0E0,0E0,0E0,3.890625E0,0E0,4.123828E1,1.9596802E1,5.4828125E1,0E0,6.4737305E1,2.8148438E1,1.3719824E2,4.56084E1,1.3386523E2,1.5444824E1,1.4270435E2,1.6364941E2,1.9853027E1,4.5681763E1,2.2097333E2,2.9234383E1,2.0611371E2,6.188263E1,2.756355E2,3.7789185E1,2.8773682E1,9.429077E1,1.3333105E2,3.989746E1,3.5786133E1,1.3289258E2,2.0447852E2,1.7219531E2,1.6288281E2,4.237793E0,4.4554688E1,1.0244922E2,1.10796875E2,0E0,0E0,0E0,1.1421875E1,7.4009766E1,0E0,0E0,0E0,5.6195312E1,0E0,0E0,0E0,0E0,0E0,0E0,0E0,0E0,0E0,0E0,0E0,0E0,0E0,0E0,0E0,0E0,0E0,0E0,0E0,0E0,0E0,0E0,0E0,0E0,0E0,0E0,0E0,0E0,0E0,0E0,0E0,0E0,0E0,0E0,0E0,0E0,0E0,0E0,0E0,0E0,0E0,0E0,0E0,0E0,0E0,0E0,0E0,0E0,0E0,0E0,0E0,0E0,0E0,0E0,0E0,0E0,0E0,0E0,0E0,0E0,0E0,0E0,0E0,0E0,0E0,0E0,0E0,0E0,0E0,0E0,0E0,0E0,0E0,0E0,0E0],"parents":[2147483647,0,0,1,1,2,2,3,3,4,4,5,5,6,6,7,7,8,8,9,9,10,10,11,11,12,12,13,13,14,14,15,15,16,16,17,17,18,18,19,19,20,20,21,21,22,22,23,23,24,24,25,25,26,26,27,27,28,28,29,29,30,30,37,37,38,38,39,39,40,40,41,41,42,42,43,43,44,44,45,45,46,46,47,47,48,48,49,49,50,50,51,51,52,52,53,53,54,54,55,55,56,56,57,57,58,58,59,59,60,60,61,61,66,66,68,68,69,69,70,70,72,72,73,73,74,74,75,75,76,76,77,77,78,78,79,79,80,80,81,81,82,82,83,83,84,84,85,85,86,86,87,87,88,88,89,89,90,90,91,91,92,92,93,93,94,94,95,95,96,96,97,97,98,98,99,99,100,100,104,104,105,105,109,109],"right_children":[2,4,6,8,10,12,14,16,18,20,22,24,26,28,30,32,34,36,38,40,42,44,46,48,50,52,54,56,58,60,62,-1,-1,-1,-1,-1,-1,64,66,68,70,72,74,76,78,80,82,84,86,88,90,92,94,96,98,100,102,104,106,108,110,112,-1,-1,-1,-1,114,-1,116,118,120,-1,122,124,126,128,130,132,134,136,138,140,142,144,146,148,150,152,154,156,158,160,162,164,166,168,170,172,174,176,178,-1,-1,-1,180,182,-1,-1,-1,184,-1,-1,-1,-1,-1,-1,-1,-1,-1,-1,-1,-1,-1,-1,-1,-1,-1,-1,-1,-1,-1,-1,-1,-1,-1,-1,-1,-1,-1,-1,-1,-1,-1,-1,-1,-1,-1,-1,-1,-1,-1,-1,-1,-1,-1,-1,-1,-1,-1,-1,-1,-1,-1,-1,-1,-1,-1,-1,-1,-1,-1,-1,-1,-1,-1,-1,-1,-1,-1,-1,-1,-1,-1,-1,-1],"split_conditions":[8.81E0,6.32E0,1.703E1,-5.9E0,8.53E0,1.27E1,2.212E1,-1.075E1,-2.65E0,2.65E0,6.65E0,1.083E1,1.484E1,1.938E1,2.675E1,-1.48E1,3.25E0,4.53E0,-8.9E-1,1.47E0,7.87E0,9.26E0,7.64E0,9.68E0,1.2246469E-16,1.2246469E-16,1.6E1,1.7E1,1.7E1,2.385E1,3.026E1,-1.1075234E0,-9.249179E-1,-7.972566E-1,-6.867095E-1,-5.9839386E-1,-5.303111E-1,-1.79E0,-1.6E-1,1.2246469E-16,-1.4E-1,1.2246469E-16,1.2246469E-16,1.2246469E-16,1.2246469E-16,1.5E1,1.2246469E-16,1.2246469E-16,1.2246469E-16,1.198E1,5E0,1.367E1,5E0,1.584E1,1.553E1,1.791E1,1.791E1,2.069E1,2.053E1,1.7E1,1.7E1,1.7E1,9.6927494E-1,-4.8183423E-1,-4.450545E-1,-4.0923905E-1,-7.214286E-1,-3.618406E-1,7E0,1.685E0,2.1E0,-2.717216E-1,7E0,8.34E0,6E0,5.37E0,6E0,-8.660254E-1,6E0,5E0,6.84E0,8.26E0,5E0,-7.0710677E-1,5E0,1.043E1,5E0,1.132E1,-7.0710677E-1,1.172E1,1.172E1,-7.0710677E-1,1.424E1,1.367E1,1.346E1,4E0,5E0,6.52E1,1.638E1,7.0710677E-1,4E0,3.1602097E-1,3.610745E-1,4.8279926E-1,5E-1,2.958E2,4.662374E-1,6.0972726E-1,5.3543246E-1,2.503E1,6.2352425E-1,8.274078E-1,7.453912E-1,-3.4425595E-1,-3.855164E-1,-3.5152933E-1,-3.1519178E-1,-2.5959858E-1,-1.8475752E-1,-3.152158E-1,-2.898523E-1,-2.5807196E-1,-2.212998E-1,-2.3866868E-1,-2.107619E-1,-2.205668E-1,-1.7951986E-1,-1.9096702E-1,-1.6459243E-1,-1.7267434E-1,-1.3388056E-1,-1.0214664E-1,-1.4283927E-1,-1.302409E-1,-8.5033976E-2,-9.55616E-2,-5.5250216E-2,-1.273223E-1,-1.0127094E-1,-6.510714E-2,-4.296436E-2,-4.9358148E-2,-2.5283184E-3,1.1915547E-2,-1.7383626E-2,-9.100362E-3,4.513612E-2,1.9625468E-2,4.770423E-2,3.6023505E-2,9.062139E-2,6.4557515E-2,8.695533E-2,1.4457195E-1,1.1124022E-1,8.118931E-2,1.1988824E-1,1.352128E-1,1.7400722E-1,1.8298118E-1,1.4724302E-1,1.848986E-1,2.0831056E-1,1.5902922E-1,2.0976038E-1,2.1332625E-1,2.602017E-1,2.4255638E-1,2.9677963E-1,2.9330626E-1,3.4629306E-1,2.0963065E-1,2.356853E-1,2.5746426E-1,2.8753796E-1,3.6032507E-1,4.0918094E-1,3.7609026E-1,4.3452E-1,5.254354E-1,5.710634E-1,4.141932E-1,-8.348989E-3,6.633666E-1,7.256469E-1],"split_indices":[1,5,1,1,5,1,1,1,1,1,1,1,1,1,1,1,5,5,1,1,5,5,1,1,20,20,14,14,14,1,1,0,0,0,0,0,0,1,1,20,30,20,20,20,20,14,20,20,20,1,14,1,14,1,1,1,1,1,1,14,14,14,0,0,0,0,30,0,14,32,1,0,14,5,14,1,14,21,14,14,1,1,14,21,14,1,14,1,21,1,1,21,1,1,1,14,14,36,1,20,14,0,0,0,20,2,0,0,0,1,0,0,0,0,0,0,0,0,0,0,0,0,0,0,0,0,0,0,0,0,0,0,0,0,0,0,0,0,0,0,0,0,0,0,0,0,0,0,0,0,0,0,0,0,0,0,0,0,0,0,0,0,0,0,0,0,0,0,0,0,0,0,0,0,0,0,0,0,0,0,0,0,0,0,0],"split_type":[0,0,0,0,0,0,0,0,0,0,0,0,0,0,0,0,0,0,0,0,0,0,0,0,0,0,0,0,0,0,0,0,0,0,0,0,0,0,0,0,0,0,0,0,0,0,0,0,0,0,0,0,0,0,0,0,0,0,0,0,0,0,0,0,0,0,0,0,0,0,0,0,0,0,0,0,0,0,0,0,0,0,0,0,0,0,0,0,0,0,0,0,0,0,0,0,0,0,0,0,0,0,0,0,0,0,0,0,0,0,0,0,0,0,0,0,0,0,0,0,0,0,0,0,0,0,0,0,0,0,0,0,0,0,0,0,0,0,0,0,0,0,0,0,0,0,0,0,0,0,0,0,0,0,0,0,0,0,0,0,0,0,0,0,0,0,0,0,0,0,0,0,0,0,0,0,0,0,0,0,0,0,0,0,0],"sum_hessian":[3.9166E4,1.9028E4,2.0138E4,6.613E3,1.2415E4,1.2785E4,7.353E3,1.533E3,5.08E3,5.681E3,6.734E3,6.214E3,6.571E3,4.883E3,2.47E3,4.61E2,1.072E3,1.865E3,3.215E3,2.768E3,2.913E3,3.043E3,3.691E3,3.201E3,3.013E3,3.389E3,3.182E3,2.618E3,2.265E3,1.858E3,6.12E2,1.53E2,3.08E2,3.05E2,7.67E2,9.43E2,9.22E2,1.703E3,1.512E3,1.26E3,1.508E3,1.22E3,1.693E3,1.821E3,1.222E3,1.662E3,2.029E3,1.37E3,1.831E3,1.389E3,1.624E3,1.697E3,1.692E3,2E3,1.182E3,1.761E3,8.57E2,1.519E3,7.46E2,9.28E2,9.3E2,4.6E2,1.52E2,7.58E2,9.45E2,7.5E2,7.62E2,6.03E2,6.57E2,8.8E1,1.42E3,5.5E2,6.7E2,7.84E2,9.09E2,8.5E2,9.71E2,5.03E2,7.19E2,1.083E3,5.79E2,9.6E2,1.069E3,6.49E2,7.21E2,8.62E2,9.69E2,8.26E2,5.63E2,6.69E2,9.55E2,7.64E2,9.33E2,5.68E2,1.124E3,9.79E2,1.021E3,3.56E2,8.26E2,7.44E2,1.017E3,3.23E2,5.34E2,7.77E2,7.42E2,3.66E2,3.8E2,6.31E2,2.97E2,6.41E2,2.89E2,3.24E2,1.36E2,1.04E2,6.58E2,3.6E2,2.97E2,6.2E1,2.6E1,7.13E2,7.07E2,3.91E2,2.79E2,5.64E2,2.2E2,4.3E2,4.79E2,4.74E2,3.76E2,4.1E2,5.61E2,3.7E1,4.66E2,3.6E2,3.59E2,4.08E2,6.75E2,1.1E2,4.69E2,5.17E2,4.43E2,4.05E2,6.64E2,1E2,5.49E2,2.98E2,4.23E2,5.58E2,3.04E2,3.86E2,5.83E2,3.39E2,4.87E2,9.1E1,4.72E2,2.88E2,3.81E2,4.39E2,5.16E2,1.12E2,6.52E2,4.73E2,4.6E2,2.77E2,2.91E2,4.05E2,7.19E2,2.25E2,7.54E2,2.41E2,7.8E2,1.69E2,1.87E2,4.6E2,3.66E2,4.93E2,2.51E2,1.58E2,8.59E2,5.27E2,2.15E2,3.65E2,1E0,3.21E2,3.2E2],"tree_param":{"num_deleted":"0","num_feature":"38","num_nodes":"185","size_leaf_vector":"1"}},{"base_weights":[3.3385411E-3,-5.7304597E0,5.659351E0,-1.0314967E1,-3.158491E0,3.2127483E0,9.914E0,-1.5230705E1,-8.928757E0,-4.8606396E0,-1.5727526E0,1.6221956E0,4.7884026E0,8.517095E0,1.3527529E1,-1.8782507E1,-1.3670667E1,-1.0567675E1,-7.908347E0,-5.807661E0,-4.053567E0,-2.4317536E0,-8.565131E-1,8.7958395E-1,2.4694288E0,3.9893134E0,5.6211886E0,7.601714E0,9.809716E0,1.2583925E1,1.6686575E1,-1.0545894E0,-8.772465E-1,-7.590107E-1,-6.5229243E-1,-5.6928295E-1,-9.891513E0,-8.591171E0,-7.312923E0,-6.310696E0,-5.4083014E0,-4.439797E0,-3.546573E0,-2.7272837E0,-1.9264655E0,-1.2477227E0,-4.1776836E-1,5.233634E-1,1.3949332E0,2.1925793E0,3.0329766E0,3.5328805E0,4.438767E0,5.1732893E0,6.168011E0,7.0729375E0,8.208881E0,1.0324401E1,9.033794E0,1.1850722E1,1.3631334E1,7.882296E-1,9.205107E-1,-5.115127E-1,-4.7620136E-1,-4.4358292E-1,-4.1505843E-1,-7.672072E0,-7.03972E0,-5.4715157E0,-6.397348E0,-4.499313E0,-5.499621E0,-2.8467057E0,-4.479902E0,-1.9042076E0,-3.6244123E0,-1.5974095E0,-2.800476E0,-1.1257137E0,-2.1246715E0,1.8656187E-2,-1.341107E0,3.8886493E-1,-5.784454E-1,2.1513121E-1,9.834885E-1,2.2765775E0,1.1621871E0,2.804534E0,1.9781076E0,2.393775E0,3.3423932E0,3.2175584E0,4.0555024E0,3.7194424E0,4.791668E0,4.8490543E0,5.7209444E0,5.3183947E0,6.481119E0,7.5062504E0,6.3731174E0,7.729368E0,8.930628E0,9.892532E0,5.550641E-1,4.2559505E-1,4.857536E-1,6.177182E-1,5.544595E-1,1.3979205E1,6.160405E-1,-3.3878934E-1,-3.888893E-1,-3.0732197E-1,-3.552914E-1,-6.3416205E-2,-2.7479863E-1,-3.317226E-1,-3.079493E-1,-1.9199541E-1,-2.5091478E-1,-2.9119337E-1,-2.6493677E-1,-1.19693995E-1,-1.9408534E-1,-2.341678E-1,-2.0988388E-1,-6.878812E-2,-1.4492816E-1,-1.7279117E-1,-1.9618383E-1,-6.0984947E-2,-1.290769E-1,-1.511883E-1,-1.2486922E-1,-7.379111E-2,-3.1963453E-2,-9.660304E-2,-1.19828776E-1,3.5117358E-2,-3.1224793E-2,-7.392184E-2,-4.276822E-2,-2.6076827E-3,5.2443802E-2,-1.8670656E-2,-4.3384682E-2,3.898206E-2,2.3081074E-3,1.4065178E-2,7.0296906E-2,1.3120095E-1,8.266731E-2,6.870965E-2,4.471001E-2,1.2361684E-1,1.6362153E-1,8.224057E-2,1.1688676E-1,1.0850258E-1,1.417679E-1,1.5428029E-1,1.987937E-1,1.4961752E-1,1.7418982E-1,2.290031E-1,1.9551663E-1,1.6408384E-1,2.1177898E-1,2.1333931E-1,2.557194E-1,2.6397723E-1,2.3243704E-1,3.0660933E-1,2.744165E-1,2.479267E-1,2.883801E-1,3.0643117E-1,3.5752827E-1,3.3401033E-1,3.8651478E-1,3.016709E-1,3.306982E-1,4.1046476E-1,3.6957714E-1,4.7008586E-1,4.2248628E-1,4.348528E-1,4.998539E-1,1.4458852E-1,6.997949E-1],"categories":[],"categories_nodes":[],"categories_segments":[],"categories_sizes":[],"default_left":[0,0,0,0,0,0,0,0,0,0,0,0,0,0,0,0,0,0,0,0,0,0,0,0,0,0,0,0,0,0,0,0,0,0,0,0,0,0,0,0,0,0,0,0,0,0,0,0,0,0,0,0,0,0,0,0,0,0,0,0,0,0,0,0,0,0,0,0,0,0,0,0,0,0,0,0,0,0,0,0,0,0,0,0,0,0,0,0,0,0,0,0,0,0,0,0,0,0,0,0,0,0,0,0,0,0,0,0,0,0,0,0,0,0,0,0,0,0,0,0,0,0,0,0,0,0,0,0,0,0,0,0,0,0,0,0,0,0,0,0,0,0,0,0,0,0,0,0,0,0,0,0,0,0,0,0,0,0,0,0,0,0,0,0,0,0,0,0,0,0,0,0,0,0,0,0,0,0,0,0,0,0,0,0,0,0,0,0,0,0,0,0,0],"id":4,"left_children":[1,3,5,7,9,11,13,15,17,19,21,23,25,27,29,31,33,35,37,39,41,43,45,47,49,51,53,55,57,59,61,-1,-1,-1,-1,-1,63,65,67,69,71,73,75,77,79,81,83,85,87,89,91,93,95,97,99,101,103,105,107,109,111,-1,-1,-1,-1,-1,-1,113,115,117,119,121,123,125,127,129,131,133,135,137,139,141,143,145,147,149,151,153,155,157,159,161,163,165,167,169,171,173,175,177,179,181,183,185,187,189,-1,-1,-1,-1,-1,191,-1,-1,-1,-1,-1,-1,-1,-1,-1,-1,-1,-1,-1,-1,-1,-1,-1,-1,-1,-1,-1,-1,-1,-1,-1,-1,-1,-1,-1,-1,-1,-1,-1,-1,-1,-1,-1,-1,-1,-1,-1,-1,-1,-1,-1,-1,-1,-1,-1,-1,-1,-1,-1,-1,-1,-1,-1,-1,-1,-1,-1,-1,-1,-1,-1,-1,-1,-1,-1,-1,-1,-1,-1,-1,-1,-1,-1,-1,-1,-1,-1],"loss_changes":[1.2726351E6,2.2974275E5,2.0560656E5,4.7584125E4,3.369139E4,3.1429523E4,3.628925E4,8.27075E3,9.0559375E3,4.5784062E3,3.9755117E3,3.926338E3,4.170703E3,6.0830312E3,5.7785938E3,9.645781E2,8.140156E2,1.0455469E3,1.3081094E3,5.219453E2,6.214336E2,4.336211E2,6.0485693E2,6.1040063E2,4.4829688E2,6.446758E2,7.231797E2,9.2146875E2,7.669531E2,1.0295625E3,4.3920312E2,0E0,0E0,0E0,0E0,0E0,4.621875E1,5.365625E1,1.2339844E2,5.363672E1,1.0391406E2,1.0500391E2,1.7360938E2,1.486836E2,1.7028906E2,2.2046143E2,2.158917E2,2.791844E2,2.764253E2,2.5156543E2,1.8147168E2,2.5095312E2,3.929082E2,2.743047E2,3.334375E2,4.48875E2,4.2033594E2,3.223125E2,2.2557812E2,2.1585156E2,1.1589844E2,0E0,0E0,0E0,0E0,0E0,0E0,2.0257812E1,1.7679688E1,5.4680176E0,2.1253906E1,3.1036377E1,6.059375E1,1.3204071E1,8.346484E1,3.0692795E1,5.440039E1,3.959857E1,1.1007129E2,3.6183746E1,4.0985107E1,5.7162132E1,1.14538574E2,8.0683075E1,8.199158E1,1.12613365E2,2.3394824E2,5.6941284E1,6.001758E1,7.055884E1,1.7043506E2,2.506543E1,9.232861E1,4.9774414E1,2.7704102E1,1.0743359E2,1.6145703E2,6.81582E1,2.6324219E1,3.2504883E1,1.9357031E2,1.3454297E2,1.1884766E1,7.826953E1,4.6972656E1,1.7664062E1,0E0,0E0,0E0,0E0,0E0,5.0578125E1,0E0,0E0,0E0,0E0,0E0,0E0,0E0,0E0,0E0,0E0,0E0,0E0,0E0,0E0,0E0,0E0,0E0,0E0,0E0,0E0,0E0,0E0,0E0,0E0,0E0,0E0,0E0,0E0,0E0,0E0,0E0,0E0,0E0,0E0,0E0,0E0,0E0,0E0,0E0,0E0,0E0,0E0,0E0,0E0,0E0,0E0,0E0,0E0,0E0,0E0,0E0,0E0,0E0,0E0,0E0,0E0,0E0,0E0,0E0,0E0,0E0,0E0,0E0,0E0,0E0,0E0,0E0,0E0,0E0,0E0,0E0,0E0,0E0,0E0,0E0,0E0,0E0,0E0,0E0,0E0,0E0],"parents":[2147483647,0,0,1,1,2,2,3,3,4,4,5,5,6,6,7,7,8,8,9,9,10,10,11,11,12,12,13,13,14,14,15,15,16,16,17,17,18,18,19,19,20,20,21,21,22,22,23,23,24,24,25,25,26,26,27,27,28,28,29,29,30,30,36,36,37,37,38,38,39,39,40,40,41,41,42,42,43,43,44,44,45,45,46,46,47,47,48,48,49,49,50,50,51,51,52,52,53,53,54,54,55,55,56,56,57,57,58,58,59,59,60,60,67,67,68,68,69,69,70,70,71,71,72,72,73,73,74,74,75,75,76,76,77,77,78,78,79,79,80,80,81,81,82,82,83,83,84,84,85,85,86,86,87,87,88,88,89,89,90,90,91,91,92,92,93,93,94,94,95,95,96,96,97,97,98,98,99,99,100,100,101,101,102,102,103,103,104,104,105,105,111,111],"right_children":[2,4,6,8,10,12,14,16,18,20,22,24,26,28,30,32,34,36,38,40,42,44,46,48,50,52,54,56,58,60,62,-1,-1,-1,-1,-1,64,66,68,70,72,74,76,78,80,82,84,86,88,90,92,94,96,98,100,102,104,106,108,110,112,-1,-1,-1,-1,-1,-1,114,116,118,120,122,124,126,128,130,132,134,136,138,140,142,144,146,148,150,152,154,156,158,160,162,164,166,168,170,172,174,176,178,180,182,184,186,188,190,-1,-1,-1,-1,-1,192,-1,-1,-1,-1,-1,-1,-1,-1,-1,-1,-1,-1,-1,-1,-1,-1,-1,-1,-1,-1,-1,-1,-1,-1,-1,-1,-1,-1,-1,-1,-1,-1,-1,-1,-1,-1,-1,-1,-1,-1,-1,-1,-1,-1,-1,-1,-1,-1,-1,-1,-1,-1,-1,-1,-1,-1,-1,-1,-1,-1,-1,-1,-1,-1,-1,-1,-1,-1,-1,-1,-1,-1,-1,-1,-1,-1,-1,-1,-1,-1,-1],"split_conditions":[9.1E0,6.49E0,1.715E1,3.93E0,8.84E0,1.299E1,2.291E1,-1.075E1,5.15E0,3.01E0,7.04E0,1.121E1,1.504E1,2.002E1,2.75E1,-1.48E1,3.25E0,4.53E0,-7.3E-1,6.98E0,4.24E0,9.59E0,8.11E0,1.035E1,7.0710677E-1,1.2246469E-16,1.2246469E-16,1.857E1,1.6E1,2.503E1,3.026E1,-1.0545894E0,-8.772465E-1,-7.590107E-1,-6.5229243E-1,-5.6928295E-1,-3.02E0,5.48E0,-3E-2,4.7E-1,1.46E0,1.73E0,3.11E0,4.35E0,6.16E0,6.26E0,7.83E0,5E-1,1.016E1,-7.0710677E-1,5E0,1.424E1,5E0,1.638E1,5E0,1.6E1,1.2246469E-16,2.168E1,2.146E1,1.6E1,-1.8369701E-16,7.882296E-1,9.205107E-1,-5.115127E-1,-4.7620136E-1,-4.4358292E-1,-4.1505843E-1,-1.05E0,-4.2E-1,-9.9887973E-1,6.73E0,2.6E0,7.22E0,1.902E2,7.99E0,5.981809E-1,1.5E1,5.09E0,9.26E0,2.9921844E0,1.5E1,1E1,8.660254E-1,8.54E0,1.5E1,-7.0710677E-1,5E0,1.987E2,1.5E1,1.225E1,1.216E1,1.234E1,1.243E1,1.367E1,-5E-1,1.413E1,1.376E1,-2.5881904E-1,-2.5881904E-1,1.616E1,1.638E1,5E0,1.779E1,-2.5881904E-1,1.829E1,5E0,5.550641E-1,4.2559505E-1,4.857536E-1,6.177182E-1,5.544595E-1,-9.998766E-1,6.160405E-1,-3.3878934E-1,-3.888893E-1,-3.0732197E-1,-3.552914E-1,-6.3416205E-2,-2.7479863E-1,-3.317226E-1,-3.079493E-1,-1.9199541E-1,-2.5091478E-1,-2.9119337E-1,-2.6493677E-1,-1.19693995E-1,-1.9408534E-1,-2.341678E-1,-2.0988388E-1,-6.878812E-2,-1.4492816E-1,-1.7279117E-1,-1.9618383E-1,-6.0984947E-2,-1.290769E-1,-1.511883E-1,-1.2486922E-1,-7.379111E-2,-3.1963453E-2,-9.660304E-2,-1.19828776E-1,3.5117358E-2,-3.1224793E-2,-7.392184E-2,-4.276822E-2,-2.6076827E-3,5.2443802E-2,-1.8670656E-2,-4.3384682E-2,3.898206E-2,2.3081074E-3,1.4065178E-2,7.0296906E-2,1.3120095E-1,8.266731E-2,6.870965E-2,4.471001E-2,1.2361684E-1,1.6362153E-1,8.224057E-2,1.1688676E-1,1.0850258E-1,1.417679E-1,1.5428029E-1,1.987937E-1,1.4961752E-1,1.7418982E-1,2.290031E-1,1.9551663E-1,1.6408384E-1,2.1177898E-1,2.1333931E-1,2.557194E-1,2.6397723E-1,2.3243704E-1,3.0660933E-1,2.744165E-1,2.479267E-1,2.883801E-1,3.0643117E-1,3.5752827E-1,3.3401033E-1,3.8651478E-1,3.016709E-1,3.306982E-1,4.1046476E-1,3.6957714E-1,4.7008586E-1,4.2248628E-1,4.348528E-1,4.998539E-1,1.4458852E-1,6.997949E-1],"split_indices":[1,5,1,5,5,1,1,1,5,1,1,1,1,1,1,1,5,5,1,5,1,5,1,1,20,20,20,1,14,1,1,0,0,0,0,0,1,5,1,26,26,26,26,26,26,26,26,20,26,21,14,1,14,1,14,14,20,1,1,14,21,0,0,0,0,0,0,26,26,22,5,12,5,13,5,23,14,12,5,35,14,14,20,1,14,21,14,13,14,1,1,1,1,1,21,1,1,21,21,1,1,14,1,21,26,14,0,0,0,0,0,24,0,0,0,0,0,0,0,0,0,0,0,0,0,0,0,0,0,0,0,0,0,0,0,0,0,0,0,0,0,0,0,0,0,0,0,0,0,0,0,0,0,0,0,0,0,0,0,0,0,0,0,0,0,0,0,0,0,0,0,0,0,0,0,0,0,0,0,0,0,0,0,0,0,0,0,0,0,0,0,0,0],"split_type":[0,0,0,0,0,0,0,0,0,0,0,0,0,0,0,0,0,0,0,0,0,0,0,0,0,0,0,0,0,0,0,0,0,0,0,0,0,0,0,0,0,0,0,0,0,0,0,0,0,0,0,0,0,0,0,0,0,0,0,0,0,0,0,0,0,0,0,0,0,0,0,0,0,0,0,0,0,0,0,0,0,0,0,0,0,0,0,0,0,0,0,0,0,0,0,0,0,0,0,0,0,0,0,0,0,0,0,0,0,0,0,0,0,0,0,0,0,0,0,0,0,0,0,0,0,0,0,0,0,0,0,0,0,0,0,0,0,0,0,0,0,0,0,0,0,0,0,0,0,0,0,0,0,0,0,0,0,0,0,0,0,0,0,0,0,0,0,0,0,0,0,0,0,0,0,0,0,0,0,0,0,0,0,0,0,0,0,0,0,0,0,0,0],"sum_hessian":[3.924E4,1.9486E4,1.9754E4,7.002E3,1.2484E4,1.2543E4,7.211E3,1.538E3,5.464E3,6.02E3,6.464E3,6.243E3,6.3E3,5.203E3,2.008E3,4.66E2,1.072E3,2.093E3,3.371E3,2.767E3,3.253E3,2.938E3,3.526E3,3.328E3,2.915E3,3.218E3,3.082E3,3.05E3,2.153E3,1.55E3,4.58E2,1.57E2,3.09E2,3.07E2,7.65E2,9.4E2,1.153E3,1.564E3,1.807E3,1.218E3,1.549E3,1.842E3,1.411E3,1.851E3,1.087E3,1.863E3,1.663E3,1.969E3,1.359E3,1.958E3,9.57E2,1.601E3,1.617E3,1.7E3,1.382E3,1.637E3,1.413E3,1.287E3,8.66E2,9.19E2,6.31E2,3.05E2,1.53E2,5.86E2,5.67E2,7.8E2,7.84E2,7.69E2,1.038E3,1.2E2,1.098E3,1.46E2,1.403E3,4.7E1,1.795E3,6.5E1,1.346E3,1.14E2,1.737E3,2.17E2,8.7E2,1.28E2,1.735E3,2.76E2,1.387E3,1.18E3,7.89E2,2.82E2,1.077E3,5.05E2,1.453E3,3.15E2,6.42E2,1.003E3,5.98E2,5.36E2,1.081E3,1.074E3,6.26E2,3.77E2,1.005E3,1.005E3,6.32E2,8.56E2,5.57E2,8.36E2,4.51E2,4.98E2,3.68E2,5.44E2,3.75E2,4.91E2,1.4E2,8.8E1,6.81E2,7.8E1,9.6E2,1E0,1.19E2,5.37E2,5.61E2,6.8E1,7.8E1,5.26E2,8.77E2,3.5E1,1.2E1,1.034E3,7.61E2,4.4E1,2.1E1,8.69E2,4.77E2,8.4E1,3E1,9.95E2,7.42E2,1.25E2,9.2E1,5.14E2,3.56E2,6.2E1,6.6E1,1.351E3,3.84E2,1.66E2,1.1E2,8.13E2,5.74E2,2.71E2,9.09E2,2.97E2,4.92E2,1.79E2,1.03E2,5.99E2,4.78E2,2.99E2,2.06E2,7.57E2,6.96E2,2.13E2,1.02E2,4.61E2,1.81E2,5.5E2,4.53E2,1.23E2,4.75E2,2.94E2,2.42E2,4.17E2,6.64E2,3.33E2,7.41E2,2.17E2,4.09E2,2.16E2,1.61E2,6.65E2,3.4E2,2.21E2,7.84E2,2.73E2,3.59E2,3.44E2,5.12E2,2.72E2,2.85E2,7.4E1,7.62E2,1E0,4.9E2],"tree_param":{"num_deleted":"0","num_feature":"38","num_nodes":"193","size_leaf_vector":"1"}},{"base_weights":[1.3536632E-2,-5.631195E0,5.1966515E0,-9.992939E0,-3.2699697E0,2.8197305E0,9.279204E0,-1.4464008E1,-8.661692E0,-4.966041E0,-1.8144414E0,1.2796247E0,4.362736E0,7.846133E0,1.2497294E1,-1.7767944E1,-1.2994753E1,-1.0012892E1,-7.6658325E0,-5.7850385E0,-4.196329E0,-2.6411214E0,-1.097689E0,5.057235E-1,2.054087E0,3.5740433E0,5.1491046E0,6.957267E0,8.956226E0,1.1311619E1,1.4867812E1,-9.9851555E-1,-8.324348E-1,-7.218141E-1,-1.2391519E1,-1.0801825E1,-9.413551E0,-8.221847E0,-7.152331E0,-6.260032E0,-5.406856E0,-4.507471E0,-3.7738168E0,-3.0130804E0,-2.259771E0,-1.528205E0,-7.126679E-1,6.885347E-2,8.958551E-1,1.634659E0,2.4025261E0,3.1564827E0,3.9990401E0,4.731355E0,5.6252933E0,6.491342E0,7.5722837E0,9.321638E0,8.141984E0,1.0489327E1,1.1841267E1,6.866145E-1,1.6553995E1,-6.468167E-1,-6.0030586E-1,-5.5784196E-1,-5.2144814E-1,-4.9191627E-1,-4.5690417E-1,-4.2533454E-1,-3.9915624E-1,-7.4674897E0,-6.934801E0,-5.392529E0,-6.336429E0,-3.8283334E0,-5.4588757E0,-3.0533764E0,-4.559797E0,-2.3547683E0,-3.8542101E0,-1.7438002E0,-3.106639E0,-1.09718E0,-2.373201E0,-7.014573E-1,-1.65668E0,-1.0633969E0,-3.9970922E-1,7.082385E-1,-1.3352188E-1,1.7291591E0,6.993497E-1,1.2566592E0,1.9852145E0,2.8063955E0,1.8214716E0,2.7515182E0,3.508944E0,4.3316574E0,3.330683E0,4.191761E0,5.0180655E0,5.9406886E0,4.8476753E0,6.040677E0,7.0335875E0,6.982166E0,8.042113E0,8.879473E0,9.927143E0,3.8418493E-1,4.3687543E-1,5.510676E-1,9.692926E0,1.2136296E1,5.413628E-1,7.774407E-1,8.738087E-1,-3.3856723E-1,-3.7974033E-1,-2.8570667E-1,-3.4962216E-1,-2.8696147E-1,-2.0658445E-1,-3.0401143E-1,-3.2409048E-1,-1.3314538E-1,-2.0212066E-1,-2.849557E-1,-2.6093632E-1,-1.242687E-1,-1.861202E-1,-2.4175501E-1,-2.1682194E-1,-4.45629E-2,-1.4882432E-1,-2.0485981E-1,-1.8124E-1,-1.1823596E-1,-6.0382646E-2,-1.6513816E-1,-1.4571543E-1,-9.485423E-2,-3.196553E-2,-1.3197659E-1,-1.07173204E-1,-5.079026E-2,1.2143153E-2,-9.3812086E-2,-7.1570374E-2,-6.373821E-2,-4.4398744E-2,-3.4215034E-3,-4.6992395E-2,2.3138633E-2,8.7330535E-2,-1.6505416E-2,5.9416546E-3,5.9716094E-2,1.1743697E-1,2.3116855E-2,4.8407625E-2,8.7540865E-2,5.8359277E-2,1.2897868E-1,9.410263E-2,1.2699798E-1,1.6523664E-1,6.440499E-2,1.0659639E-1,1.6697128E-1,1.3259432E-1,1.9379508E-1,1.6722198E-1,1.9977409E-1,2.4164131E-1,1.4558437E-1,1.8948337E-1,2.2715126E-1,1.9720511E-1,2.7455813E-1,2.4295507E-1,2.6569352E-1,3.143373E-1,2.238766E-1,2.6176786E-1,3.1907293E-1,2.8637457E-1,3.742512E-1,3.3770594E-1,3.9282668E-1,3.3561146E-1,4.1442195E-1,3.4727523E-1,4.1646457E-1,4.6301913E-1,4.6357304E-1,5.131588E-1,1.3927391E-1,4.8545775E-1,6.0735494E-1,1.1031709E-1],"categories":[],"categories_nodes":[],"categories_segments":[],"categories_sizes":[],"default_left":[0,0,0,0,0,0,0,0,0,0,0,0,0,0,0,0,0,0,0,0,0,0,0,0,0,0,0,0,0,0,0,0,0,0,0,0,0,0,0,0,0,0,0,0,0,0,0,0,0,0,0,0,0,0,0,0,0,0,0,0,0,0,0,0,0,0,0,0,0,0,0,0,0,0,0,0,0,0,0,0,0,0,0,0,0,0,0,0,0,0,0,0,0,0,0,0,0,0,0,0,0,0,0,0,0,0,0,0,0,0,0,0,0,0,0,0,0,0,0,0,0,0,0,0,0,0,0,0,0,0,0,0,0,0,0,0,0,0,0,0,0,0,0,0,0,0,0,0,0,0,0,0,0,0,0,0,0,0,0,0,0,0,0,0,0,0,0,0,0,0,0,0,0,0,0,0,0,0,0,0,0,0,0,0,0,0,0,0,0,0,0,0,0,0,0,0,0,0,0,0,0,0,0],"id":5,"left_children":[1,3,5,7,9,11,13,15,17,19,21,23,25,27,29,31,33,35,37,39,41,43,45,47,49,51,53,55,57,59,61,-1,-1,-1,63,65,67,69,71,73,75,77,79,81,83,85,87,89,91,93,95,97,99,101,103,105,107,109,111,113,115,-1,117,-1,-1,-1,-1,-1,-1,-1,-1,119,121,123,125,127,129,131,133,135,137,139,141,143,145,147,149,151,153,155,157,159,161,163,165,167,169,171,173,175,177,179,181,183,185,187,189,191,193,195,197,-1,-1,-1,199,201,-1,-1,-1,-1,-1,-1,-1,-1,-1,-1,-1,-1,-1,-1,-1,-1,-1,-1,-1,-1,-1,-1,-1,-1,-1,-1,-1,-1,-1,-1,-1,-1,-1,-1,-1,-1,-1,-1,-1,-1,-1,-1,-1,-1,-1,-1,-1,-1,-1,-1,-1,-1,-1,-1,-1,-1,-1,-1,-1,-1,-1,-1,-1,-1,-1,-1,-1,-1,-1,-1,-1,-1,-1,-1,-1,-1,-1,-1,-1,-1,-1,-1,-1,-1,-1,-1,-1],"loss_changes":[1.1488168E6,1.935485E5,1.9861275E5,3.91645E4,3.0099008E4,3.0742555E4,3.4637688E4,7.1136875E3,6.7710625E3,3.5260938E3,3.8870273E3,3.880999E3,3.989961E3,5.0824688E3,6.34975E3,8.088125E2,7.3503125E2,9.177344E2,7.788906E2,4.5584375E2,3.6515234E2,4.2553906E2,5.820469E2,5.52324E2,4.6914258E2,5.6058203E2,6.1671875E2,7.8184375E2,6.128906E2,5.508594E2,1.2469844E3,0E0,0E0,0E0,1.75E0,5.953125E0,5.4382812E1,2.7421875E1,5.33125E1,4.548828E1,1.0432031E2,1.1306641E2,1.3227148E2,1.7746094E2,1.963916E2,1.7515674E2,2.0362561E2,1.980701E2,2.7912854E2,1.9255957E2,4.093164E2,2.2357324E2,3.405957E2,2.4645703E2,3.405586E2,3.624375E2,2.8875E2,3.378125E2,1.3072656E2,1.5417969E2,1.483125E2,0E0,1.0984375E1,0E0,0E0,0E0,0E0,0E0,0E0,0E0,0E0,2.9023438E0,2.4851562E1,2.1749268E1,1.5234375E0,2.2091064E0,5.5296875E1,1.3928955E1,7.797266E1,6.012967E1,5.042383E1,3.30979E1,4.4426758E1,4.8597412E1,7.841211E1,6.703687E1,6.834082E1,3.1348877E1,1.7600937E2,9.298935E1,5.773515E1,1.052229E2,8.7917725E1,2.93927E1,4.186743E1,1.2969238E2,1.1763672E2,3.5953613E1,3.955664E1,1.5978516E2,9.1853516E1,3.480078E1,5.7847656E1,1.9804297E2,3.9698242E1,6.0785156E1,4.35625E1,7.9203125E1,1.2773828E2,1.175625E2,5.092578E1,0E0,0E0,0E0,1.5390625E0,5E1,0E0,0E0,0E0,0E0,0E0,0E0,0E0,0E0,0E0,0E0,0E0,0E0,0E0,0E0,0E0,0E0,0E0,0E0,0E0,0E0,0E0,0E0,0E0,0E0,0E0,0E0,0E0,0E0,0E0,0E0,0E0,0E0,0E0,0E0,0E0,0E0,0E0,0E0,0E0,0E0,0E0,0E0,0E0,0E0,0E0,0E0,0E0,0E0,0E0,0E0,0E0,0E0,0E0,0E0,0E0,0E0,0E0,0E0,0E0,0E0,0E0,0E0,0E0,0E0,0E0,0E0,0E0,0E0,0E0,0E0,0E0,0E0,0E0,0E0,0E0,0E0,0E0,0E0,0E0,0E0,0E0,0E0,0E0,0E0,0E0,0E0,0E0],"parents":[2147483647,0,0,1,1,2,2,3,3,4,4,5,5,6,6,7,7,8,8,9,9,10,10,11,11,12,12,13,13,14,14,15,15,16,16,17,17,18,18,19,19,20,20,21,21,22,22,23,23,24,24,25,25,26,26,27,27,28,28,29,29,30,30,34,34,35,35,36,36,37,37,38,38,39,39,40,40,41,41,42,42,43,43,44,44,45,45,46,46,47,47,48,48,49,49,50,50,51,51,52,52,53,53,54,54,55,55,56,56,57,57,58,58,59,59,60,60,62,62,71,71,72,72,73,73,74,74,75,75,76,76,77,77,78,78,79,79,80,80,81,81,82,82,83,83,84,84,85,85,86,86,87,87,88,88,89,89,90,90,91,91,92,92,93,93,94,94,95,95,96,96,97,97,98,98,99,99,100,100,101,101,102,102,103,103,104,104,105,105,106,106,107,107,108,108,109,109,110,110,114,114,115,115],"right_children":[2,4,6,8,10,12,14,16,18,20,22,24,26,28,30,32,34,36,38,40,42,44,46,48,50,52,54,56,58,60,62,-1,-1,-1,64,66,68,70,72,74,76,78,80,82,84,86,88,90,92,94,96,98,100,102,104,106,108,110,112,114,116,-1,118,-1,-1,-1,-1,-1,-1,-1,-1,120,122,124,126,128,130,132,134,136,138,140,142,144,146,148,150,152,154,156,158,160,162,164,166,168,170,172,174,176,178,180,182,184,186,188,190,192,194,196,198,-1,-1,-1,200,202,-1,-1,-1,-1,-1,-1,-1,-1,-1,-1,-1,-1,-1,-1,-1,-1,-1,-1,-1,-1,-1,-1,-1,-1,-1,-1,-1,-1,-1,-1,-1,-1,-1,-1,-1,-1,-1,-1,-1,-1,-1,-1,-1,-1,-1,-1,-1,-1,-1,-1,-1,-1,-1,-1,-1,-1,-1,-1,-1,-1,-1,-1,-1,-1,-1,-1,-1,-1,-1,-1,-1,-1,-1,-1,-1,-1,-1,-1,-1,-1,-1,-1,-1,-1,-1,-1,-1],"split_conditions":[8.71E0,4.7E-1,1.692E1,-5.9E0,4.67E0,1.27E1,2.237E1,-1.075E1,-2.31E0,2.65E0,6.65E0,1.072E1,1.473E1,1.954E1,2.608E1,-1.48E1,-8.35E0,-4.03E0,-8.9E-1,1.47E0,3.84E0,5.67E0,7.64E0,9.68E0,1.2246469E-16,1.2246469E-16,1.2246469E-16,1.2246469E-16,-1.8369701E-16,2.348E1,2.86E1,-9.9851555E-1,-8.324348E-1,-7.218141E-1,-7.09E0,-4.9E0,-3.23E0,-1.62E0,-2.8E-1,1E-1,3.3E-1,1.59E0,2.89E0,3.84E0,4.98E0,6.36E0,1.2246469E-16,8.71E0,9.49E0,1.172E1,5E-1,1.367E1,5E-1,1.553E1,5E-1,1.829E1,1.791E1,2.106E1,2.086E1,2.170143E1,-1.8369701E-16,6.866145E-1,3.026E1,-6.468167E-1,-6.0030586E-1,-5.5784196E-1,-5.2144814E-1,-4.9191627E-1,-4.5690417E-1,-4.2533454E-1,-3.9915624E-1,-1.05E0,-1.05E0,3.5457773E0,-1.8369701E-16,-7.23644E-1,2.1E0,1.25E0,3.2E0,2.7609697E-1,1.2246469E-16,3.169522E0,1.2246469E-16,4.5616665E0,1.2246469E-16,3.747202E0,1.2246469E-16,4.05E0,5E-1,4.0670547E0,9.29E0,3.065003E0,1.2246469E-16,-7.0710677E-1,-7.0710677E-1,1.206E1,1.153E1,-7.0710677E-1,-2.5881904E-1,3.287178E0,1.376E1,1.543E1,-5E-1,1.543E1,1.573E1,-1.8369701E-16,-2.5881904E-1,1.573E1,5E-1,-2.5881904E-1,-5E-1,3.8418493E-1,4.3687543E-1,5.510676E-1,-9.999756E-1,2.75E1,5.413628E-1,7.774407E-1,8.738087E-1,-3.3856723E-1,-3.7974033E-1,-2.8570667E-1,-3.4962216E-1,-2.8696147E-1,-2.0658445E-1,-3.0401143E-1,-3.2409048E-1,-1.3314538E-1,-2.0212066E-1,-2.849557E-1,-2.6093632E-1,-1.242687E-1,-1.861202E-1,-2.4175501E-1,-2.1682194E-1,-4.45629E-2,-1.4882432E-1,-2.0485981E-1,-1.8124E-1,-1.1823596E-1,-6.0382646E-2,-1.6513816E-1,-1.4571543E-1,-9.485423E-2,-3.196553E-2,-1.3197659E-1,-1.07173204E-1,-5.079026E-2,1.2143153E-2,-9.3812086E-2,-7.1570374E-2,-6.373821E-2,-4.4398744E-2,-3.4215034E-3,-4.6992395E-2,2.3138633E-2,8.7330535E-2,-1.6505416E-2,5.9416546E-3,5.9716094E-2,1.1743697E-1,2.3116855E-2,4.8407625E-2,8.7540865E-2,5.8359277E-2,1.2897868E-1,9.410263E-2,1.2699798E-1,1.6523664E-1,6.440499E-2,1.0659639E-1,1.6697128E-1,1.3259432E-1,1.9379508E-1,1.6722198E-1,1.9977409E-1,2.4164131E-1,1.4558437E-1,1.8948337E-1,2.2715126E-1,1.9720511E-1,2.7455813E-1,2.4295507E-1,2.6569352E-1,3.143373E-1,2.238766E-1,2.6176786E-1,3.1907293E-1,2.8637457E-1,3.742512E-1,3.3770594E-1,3.9282668E-1,3.3561146E-1,4.1442195E-1,3.4727523E-1,4.1646457E-1,4.6301913E-1,4.6357304E-1,5.131588E-1,1.3927391E-1,4.8545775E-1,6.0735494E-1,1.1031709E-1],"split_indices":[1,1,1,1,1,1,1,1,1,1,1,1,1,1,1,1,1,1,1,1,1,1,1,1,20,20,20,20,21,1,1,0,0,0,1,1,1,1,1,26,26,26,26,26,26,26,20,26,26,1,21,1,21,1,21,1,1,1,1,30,21,0,1,0,0,0,0,0,0,0,0,26,26,33,21,22,1,11,1,23,20,33,20,34,20,33,20,3,21,33,1,33,20,21,21,1,1,21,21,33,1,26,21,1,1,21,21,26,21,20,20,0,0,0,25,27,0,0,0,0,0,0,0,0,0,0,0,0,0,0,0,0,0,0,0,0,0,0,0,0,0,0,0,0,0,0,0,0,0,0,0,0,0,0,0,0,0,0,0,0,0,0,0,0,0,0,0,0,0,0,0,0,0,0,0,0,0,0,0,0,0,0,0,0,0,0,0,0,0,0,0,0,0,0,0,0,0,0,0,0,0,0,0],"split_type":[0,0,0,0,0,0,0,0,0,0,0,0,0,0,0,0,0,0,0,0,0,0,0,0,0,0,0,0,0,0,0,0,0,0,0,0,0,0,0,0,0,0,0,0,0,0,0,0,0,0,0,0,0,0,0,0,0,0,0,0,0,0,0,0,0,0,0,0,0,0,0,0,0,0,0,0,0,0,0,0,0,0,0,0,0,0,0,0,0,0,0,0,0,0,0,0,0,0,0,0,0,0,0,0,0,0,0,0,0,0,0,0,0,0,0,0,0,0,0,0,0,0,0,0,0,0,0,0,0,0,0,0,0,0,0,0,0,0,0,0,0,0,0,0,0,0,0,0,0,0,0,0,0,0,0,0,0,0,0,0,0,0,0,0,0,0,0,0,0,0,0,0,0,0,0,0,0,0,0,0,0,0,0,0,0,0,0,0,0,0,0,0,0,0,0,0,0,0,0,0,0,0,0],"sum_hessian":[3.9264E4,1.8795E4,2.0469E4,6.6E3,1.2195E4,1.2938E4,7.531E3,1.512E3,5.088E3,5.631E3,6.564E3,6.476E3,6.462E3,5.213E3,2.318E3,4.62E2,1.05E3,2.155E3,2.933E3,2.725E3,2.906E3,3.047E3,3.517E3,3.24E3,3.236E3,3.229E3,3.233E3,2.899E3,2.314E3,1.549E3,7.69E2,1.5E2,3.12E2,3.03E2,7.47E2,9.23E2,1.232E3,1.401E3,1.532E3,1.201E3,1.524E3,1.668E3,1.238E3,1.539E3,1.508E3,1.659E3,1.858E3,1.529E3,1.711E3,1.471E3,1.765E3,1.633E3,1.596E3,1.728E3,1.505E3,1.656E3,1.243E3,1.59E3,7.24E2,6.15E2,9.34E2,4.65E2,3.04E2,2.96E2,4.51E2,4.58E2,4.65E2,4.71E2,7.61E2,6.23E2,7.78E2,6.12E2,9.2E2,1.03E2,1.098E3,5.1E1,1.473E3,6E1,1.608E3,6.8E1,1.17E3,1.07E2,1.432E3,1.35E2,1.373E3,2.24E2,1.435E3,8.75E2,9.83E2,3.67E2,1.162E3,3.25E2,1.386E3,7.1E2,7.61E2,1.039E3,7.26E2,7.64E2,8.69E2,1.062E3,5.34E2,6.05E2,1.123E3,1.066E3,4.39E2,9.11E2,7.45E2,5.58E2,6.85E2,9.28E2,6.62E2,4.17E2,3.07E2,3.61E2,2.54E2,7.15E2,2.19E2,1.54E2,1.5E2,1.03E2,5.09E2,4.6E1,8.74E2,7.8E1,2.5E1,4.13E2,6.85E2,1E1,4.1E1,7.25E2,7.48E2,3.5E1,2.5E1,7.11E2,8.97E2,2.1E1,4.7E1,5.6E2,6.1E2,4.8E1,5.9E1,7.01E2,7.31E2,4.8E1,8.7E1,6.31E2,7.42E2,1.68E2,5.6E1,7.23E2,7.12E2,3.94E2,4.81E2,6.1E2,3.73E2,2.98E2,6.9E1,6.53E2,5.09E2,1.76E2,1.49E2,7.38E2,6.48E2,1.06E2,6.04E2,1.09E2,6.52E2,6.81E2,3.58E2,2.69E2,4.57E2,1.06E2,6.58E2,2.62E2,6.07E2,6.41E2,4.21E2,2.83E2,2.51E2,2.43E2,3.62E2,2.74E2,8.49E2,3.85E2,6.81E2,2.31E2,2.08E2,4.27E2,4.84E2,2.75E2,4.7E2,1.25E2,4.33E2,5.54E2,1.31E2,3.89E2,5.39E2,2.34E2,4.28E2,1E0,2.53E2,7.14E2,1E0],"tree_param":{"num_deleted":"0","num_feature":"38","num_nodes":"203","size_leaf_vector":"1"}},{"base_weights":[-3.302403E-2,-5.2843666E0,5.008635E0,-9.447243E0,-2.9998975E0,2.746949E0,8.805807E0,-1.3760835E1,-8.157881E0,-4.63339E0,-1.6145582E0,1.2862995E0,4.1413574E0,7.3889894E0,1.1735174E1,-1.6944212E1,-1.2350274E1,-9.494422E0,-7.235131E0,-5.416736E0,-3.8966494E0,-2.399656E0,-9.1339904E-1,5.462206E-1,1.9407544E0,3.3908362E0,4.89411E0,6.4892616E0,8.339978E0,1.06437025E1,1.4157146E1,-9.517765E-1,-1.5835206E1,-6.861211E-1,-1.1790464E1,-5.134089E-1,-8.930784E0,-7.8328104E0,-6.7404256E0,-5.920345E0,-5.094152E0,-4.2010307E0,-3.4863174E0,-2.7495089E0,-2.0200856E0,-1.3019998E0,-5.534937E-1,1.7513034E-1,8.98511E-1,1.48819E0,2.2262785E0,2.982821E0,3.7615063E0,4.546568E0,5.3417883E0,6.885403E0,6.094829E0,7.8820624E0,8.926969E0,1.0033105E1,1.137268E1,1.3089423E1,1.5638623E1,-8.349641E-1,-7.4526924E-1,-6.1620605E-1,-5.702948E-1,-4.6137762E-1,-4.302538E-1,-4.0627623E-1,-7.5846653E0,-7.0420485E0,-6.483723E0,-5.0663176E0,-2.9931828E-1,-3.6598103E0,-5.1367846E0,-2.8308136E0,-4.2493057E0,-2.2320688E0,-3.555349E0,-1.3525347E0,-2.8365088E0,-1.1599282E0,-2.1460845E0,-3.2611963E-1,-1.399061E0,7.393327E-1,-6.2599E-1,9.3129176E-1,-9.35664E-3,2.008526E0,7.371403E-1,2.5786874E0,1.3490787E0,3.0462008E0,2.0426466E0,3.783815E0,2.7446733E0,4.769944E0,3.5495527E0,5.876467E0,4.4080353E0,5.870705E0,4.967155E0,6.4586854E0,7.3398705E0,5.6245704E0,6.476074E0,8.41812E0,7.425341E0,4.7895804E-1,8.500848E0,5.249976E-1,9.365934E0,5.949882E-1,5.379916E-1,6.769825E-1,6.0842127E-1,7.3553026E-1,8.2869714E-1,-3.1285423E-1,-3.8187462E-1,-3.2036635E-1,-3.571292E-1,-2.8163865E-1,-3.2874057E-1,-2.6853353E-1,-1.784396E-1,-1.8760534E-1,-1.0209017E-1,-2.702434E-1,-2.4585639E-1,-1.0742479E-1,-1.6999023E-1,-2.2523455E-1,-2.0223525E-1,-8.1414945E-2,-1.4939436E-1,-1.8805389E-1,-1.6786224E-1,-9.907248E-2,-3.5457365E-2,-1.5234776E-1,-1.3294283E-1,-7.256406E-2,-6.0226247E-3,-1.1741334E-1,-9.81813E-2,-2.9991586E-2,4.968472E-2,-7.966103E-2,-5.886311E-2,6.717119E-2,-1.0031223E-4,-4.007205E-2,-1.9934798E-2,2.8039133E-2,8.174058E-2,-1.1091924E-2,1.11247515E-2,1.3008837E-1,6.591527E-2,2.7795782E-2,4.895405E-2,1.5123412E-1,8.7859176E-2,7.711663E-2,5.131927E-2,1.728033E-1,1.2299495E-1,9.032503E-2,1.1415117E-1,2.232089E-1,1.6005956E-1,1.2597974E-1,1.4714734E-1,2.676005E-1,2.1453701E-1,1.6586989E-1,1.8966942E-1,3.069244E-1,2.2089683E-1,2.3803763E-1,2.0829292E-1,3.119765E-1,2.708226E-1,2.3200178E-1,2.5736508E-1,3.7460512E-1,3.100166E-1,3.834523E-1,3.4317276E-1,2.6579678E-1,2.9719523E-1,3.1147948E-1,3.4458768E-1,4.5525151E-1,4.0731364E-1,2.2156982E-1,3.723762E-1,4.3988392E-1,4.0533987E-1,1.3579206E-1,4.6880504E-1],"categories":[],"categories_nodes":[],"categories_segments":[],"categories_sizes":[],"default_left":[0,0,0,0,0,0,0,0,0,0,0,0,0,0,0,0,0,0,0,0,0,0,0,0,0,0,0,0,0,0,0,0,0,0,0,0,0,0,0,0,0,0,0,0,0,0,0,0,0,0,0,0,0,0,0,0,0,0,0,0,0,0,0,0,0,0,0,0,0,0,0,0,0,0,0,0,0,0,0,0,0,0,0,0,0,0,0,0,0,0,0,0,0,0,0,0,0,0,0,0,0,0,0,0,0,0,0,0,0,0,0,0,0,0,0,0,0,0,0,0,0,0,0,0,0,0,0,0,0,0,0,0,0,0,0,0,0,0,0,0,0,0,0,0,0,0,0,0,0,0,0,0,0,0,0,0,0,0,0,0,0,0,0,0,0,0,0,0,0,0,0,0,0,0,0,0,0,0,0,0,0,0,0,0,0,0,0,0,0,0,0,0,0,0,0,0,0,0,0,0,0,0,0,0,0],"id":6,"left_children":[1,3,5,7,9,11,13,15,17,19,21,23,25,27,29,31,33,35,37,39,41,43,45,47,49,51,53,55,57,59,61,-1,63,-1,65,-1,67,69,71,73,75,77,79,81,83,85,87,89,91,93,95,97,99,101,103,105,107,109,111,113,115,117,119,-1,-1,-1,-1,-1,-1,-1,121,123,125,127,-1,129,131,133,135,137,139,141,143,145,147,149,151,153,155,157,159,161,163,165,167,169,171,173,175,177,179,181,183,185,187,189,191,193,195,197,199,-1,201,-1,203,-1,-1,-1,-1,-1,-1,-1,-1,-1,-1,-1,-1,-1,-1,-1,-1,-1,-1,-1,-1,-1,-1,-1,-1,-1,-1,-1,-1,-1,-1,-1,-1,-1,-1,-1,-1,-1,-1,-1,-1,-1,-1,-1,-1,-1,-1,-1,-1,-1,-1,-1,-1,-1,-1,-1,-1,-1,-1,-1,-1,-1,-1,-1,-1,-1,-1,-1,-1,-1,-1,-1,-1,-1,-1,-1,-1,-1,-1,-1,-1,-1,-1,-1,-1,-1,-1,-1,-1,-1,-1],"loss_changes":[1.03450275E6,1.8198288E5,1.7117781E5,3.7602188E4,2.7960203E4,2.544375E4,3.0796312E4,6.7912188E3,6.3728125E3,3.25175E3,3.679959E3,2.9554014E3,3.5946094E3,4.2394062E3,6.2571875E3,8.025469E2,6.708594E2,8.372344E2,8.6203125E2,4.1595312E2,3.508047E2,4.1341016E2,4.9368262E2,3.7451923E2,4.152246E2,4.7335156E2,4.718828E2,3.616328E2,5.844219E2,6.314531E2,9.816406E2,0E0,5.78125E0,0E0,1.8898438E1,0E0,4.0445312E1,3.9695312E1,8.596875E1,2.9777344E1,8.399219E1,9.8765625E1,1.0046484E2,1.953623E2,1.619209E2,1.6047314E2,1.7263574E2,1.9489291E2,2.6183154E2,1.8705737E2,2.924961E2,2.8146973E2,3.4108594E2,3.0608594E2,2.45875E2,2.0101562E2,1.971875E2,2.74625E2,2.1315625E2,1.8820312E2,1.1616406E2,1.8523438E1,2.4390625E1,0E0,0E0,0E0,0E0,0E0,0E0,0E0,6.2109375E0,3.3710938E0,3.5132812E1,1.8662598E1,0E0,1.0437012E-1,6.941016E1,1.5989471E1,6.621875E1,2.6165985E1,3.5668945E1,3.8249176E1,4.954883E1,5.918463E1,4.4157715E1,5.6589645E1,6.465845E1,4.3890656E1,6.9069885E1,7.050418E1,5.5422386E1,7.273108E1,5.5797363E1,4.634558E1,6.801257E1,7.8248535E1,8.806055E1,1.2365527E2,4.537793E1,5.7367188E1,6.598828E1,3.670215E1,1.1991406E2,6.1703125E1,2.4376953E1,1.3216016E2,4.3496094E1,2.6648438E1,3.011914E1,4.2726562E1,1.69375E1,0E0,4.703125E0,0E0,7.65625E-1,0E0,0E0,0E0,0E0,0E0,0E0,0E0,0E0,0E0,0E0,0E0,0E0,0E0,0E0,0E0,0E0,0E0,0E0,0E0,0E0,0E0,0E0,0E0,0E0,0E0,0E0,0E0,0E0,0E0,0E0,0E0,0E0,0E0,0E0,0E0,0E0,0E0,0E0,0E0,0E0,0E0,0E0,0E0,0E0,0E0,0E0,0E0,0E0,0E0,0E0,0E0,0E0,0E0,0E0,0E0,0E0,0E0,0E0,0E0,0E0,0E0,0E0,0E0,0E0,0E0,0E0,0E0,0E0,0E0,0E0,0E0,0E0,0E0,0E0,0E0,0E0,0E0,0E0,0E0,0E0,0E0,0E0,0E0,0E0,0E0,0E0,0E0,0E0,0E0,0E0],"parents":[2147483647,0,0,1,1,2,2,3,3,4,4,5,5,6,6,7,7,8,8,9,9,10,10,11,11,12,12,13,13,14,14,15,15,16,16,17,17,18,18,19,19,20,20,21,21,22,22,23,23,24,24,25,25,26,26,27,27,28,28,29,29,30,30,32,32,34,34,36,36,37,37,38,38,39,39,40,40,41,41,42,42,43,43,44,44,45,45,46,46,47,47,48,48,49,49,50,50,51,51,52,52,53,53,54,54,55,55,56,56,57,57,58,58,59,59,60,60,61,61,62,62,70,70,71,71,72,72,73,73,75,75,76,76,77,77,78,78,79,79,80,80,81,81,82,82,83,83,84,84,85,85,86,86,87,87,88,88,89,89,90,90,91,91,92,92,93,93,94,94,95,95,96,96,97,97,98,98,99,99,100,100,101,101,102,102,103,103,104,104,105,105,106,106,107,107,108,108,109,109,110,110,112,112,114,114],"right_children":[2,4,6,8,10,12,14,16,18,20,22,24,26,28,30,32,34,36,38,40,42,44,46,48,50,52,54,56,58,60,62,-1,64,-1,66,-1,68,70,72,74,76,78,80,82,84,86,88,90,92,94,96,98,100,102,104,106,108,110,112,114,116,118,120,-1,-1,-1,-1,-1,-1,-1,122,124,126,128,-1,130,132,134,136,138,140,142,144,146,148,150,152,154,156,158,160,162,164,166,168,170,172,174,176,178,180,182,184,186,188,190,192,194,196,198,200,-1,202,-1,204,-1,-1,-1,-1,-1,-1,-1,-1,-1,-1,-1,-1,-1,-1,-1,-1,-1,-1,-1,-1,-1,-1,-1,-1,-1,-1,-1,-1,-1,-1,-1,-1,-1,-1,-1,-1,-1,-1,-1,-1,-1,-1,-1,-1,-1,-1,-1,-1,-1,-1,-1,-1,-1,-1,-1,-1,-1,-1,-1,-1,-1,-1,-1,-1,-1,-1,-1,-1,-1,-1,-1,-1,-1,-1,-1,-1,-1,-1,-1,-1,-1,-1,-1,-1,-1,-1,-1,-1,-1,-1],"split_conditions":[1.142E1,6E-1,1.692E1,3.93E0,4.79E0,1.27E1,2.212E1,-1.075E1,5.15E0,2.77E0,6.84E0,1.072E1,1.473E1,1.922E1,2.608E1,2.5852E2,-8.35E0,4.53E0,-8.9E-1,1.47E0,8.1E0,9.26E0,7.83E0,9.79E0,1.153E1,1.367E1,1.594E1,1.7657143E1,2.069E1,2.385E1,2.86E1,-9.517765E-1,-1.245E1,-6.861211E-1,-7.09E0,-5.134089E-1,-3.02E0,-1.62E0,-1.6E-1,1E-1,3.3E-1,1.73E0,3.01E0,3.75E0,5.46E0,6.26E0,6.84E0,8.71E0,9.29E0,9.87E0,1.132E1,1.252E1,1.317E1,1.376E1,1.627E1,1.791E1,2.9215E2,1.857E1,1.912E1,2.170143E1,2.053E1,2.385E1,3.026E1,-8.349641E-1,-7.4526924E-1,-6.1620605E-1,-5.702948E-1,-4.6137762E-1,-4.302538E-1,-4.0627623E-1,-2.13E0,-1.05E0,-4.2E-1,3.7701204E0,-2.9931828E-1,2.03E0,2.1E0,1.25E0,7.75E0,6.2541056E-1,8.34E0,3.5207014E0,5.28E0,4.023413E0,9.59E0,4.2358966E0,7.37E0,2.6E0,1.106E1,3.4087298E0,9.39E0,3.28E0,1.035E1,3.76E0,1.2524285E1,1.916E2,1.216E1,3.08E0,1.317E1,2.96E0,1.424E1,2.075E2,1.533E1,1.994E2,1.638E1,1.573E1,2.034E2,9.22E0,1.451E1,1.815E1,9.7377E2,4.7895804E-1,2.193E1,5.249976E-1,-9.999756E-1,5.949882E-1,5.379916E-1,6.769825E-1,6.0842127E-1,7.3553026E-1,8.2869714E-1,-3.1285423E-1,-3.8187462E-1,-3.2036635E-1,-3.571292E-1,-2.8163865E-1,-3.2874057E-1,-2.6853353E-1,-1.784396E-1,-1.8760534E-1,-1.0209017E-1,-2.702434E-1,-2.4585639E-1,-1.0742479E-1,-1.6999023E-1,-2.2523455E-1,-2.0223525E-1,-8.1414945E-2,-1.4939436E-1,-1.8805389E-1,-1.6786224E-1,-9.907248E-2,-3.5457365E-2,-1.5234776E-1,-1.3294283E-1,-7.256406E-2,-6.0226247E-3,-1.1741334E-1,-9.81813E-2,-2.9991586E-2,4.968472E-2,-7.966103E-2,-5.886311E-2,6.717119E-2,-1.0031223E-4,-4.007205E-2,-1.9934798E-2,2.8039133E-2,8.174058E-2,-1.1091924E-2,1.11247515E-2,1.3008837E-1,6.591527E-2,2.7795782E-2,4.895405E-2,1.5123412E-1,8.7859176E-2,7.711663E-2,5.131927E-2,1.728033E-1,1.2299495E-1,9.032503E-2,1.1415117E-1,2.232089E-1,1.6005956E-1,1.2597974E-1,1.4714734E-1,2.676005E-1,2.1453701E-1,1.6586989E-1,1.8966942E-1,3.069244E-1,2.2089683E-1,2.3803763E-1,2.0829292E-1,3.119765E-1,2.708226E-1,2.3200178E-1,2.5736508E-1,3.7460512E-1,3.100166E-1,3.834523E-1,3.4317276E-1,2.6579678E-1,2.9719523E-1,3.1147948E-1,3.4458768E-1,4.5525151E-1,4.0731364E-1,2.2156982E-1,3.723762E-1,4.3988392E-1,4.0533987E-1,1.3579206E-1,4.6880504E-1],"split_indices":[5,1,1,5,1,1,1,1,5,1,1,1,1,1,1,2,1,5,1,1,5,5,1,1,1,1,1,30,1,1,1,0,1,0,1,0,1,1,1,26,26,26,26,26,26,26,26,26,26,26,26,26,26,26,26,1,2,30,30,30,27,27,1,0,0,0,0,0,0,0,26,26,26,35,0,3,1,11,5,23,5,33,1,33,5,33,1,12,5,33,1,12,1,12,30,13,1,12,1,12,1,13,26,13,1,26,13,8,3,26,37,0,30,0,25,0,0,0,0,0,0,0,0,0,0,0,0,0,0,0,0,0,0,0,0,0,0,0,0,0,0,0,0,0,0,0,0,0,0,0,0,0,0,0,0,0,0,0,0,0,0,0,0,0,0,0,0,0,0,0,0,0,0,0,0,0,0,0,0,0,0,0,0,0,0,0,0,0,0,0,0,0,0,0,0,0,0,0,0,0,0,0,0,0,0],"split_type":[0,0,0,0,0,0,0,0,0,0,0,0,0,0,0,0,0,0,0,0,0,0,0,0,0,0,0,0,0,0,0,0,0,0,0,0,0,0,0,0,0,0,0,0,0,0,0,0,0,0,0,0,0,0,0,0,0,0,0,0,0,0,0,0,0,0,0,0,0,0,0,0,0,0,0,0,0,0,0,0,0,0,0,0,0,0,0,0,0,0,0,0,0,0,0,0,0,0,0,0,0,0,0,0,0,0,0,0,0,0,0,0,0,0,0,0,0,0,0,0,0,0,0,0,0,0,0,0,0,0,0,0,0,0,0,0,0,0,0,0,0,0,0,0,0,0,0,0,0,0,0,0,0,0,0,0,0,0,0,0,0,0,0,0,0,0,0,0,0,0,0,0,0,0,0,0,0,0,0,0,0,0,0,0,0,0,0,0,0,0,0,0,0,0,0,0,0,0,0,0,0,0,0,0,0],"sum_hessian":[3.9072E4,1.9138E4,1.9934E4,6.78E3,1.2358E4,1.2494E4,7.44E3,1.558E3,5.222E3,5.67E3,6.688E3,6.103E3,6.391E3,5.017E3,2.423E3,4.75E2,1.083E3,2.129E3,3.093E3,2.745E3,2.925E3,3.154E3,3.534E3,2.865E3,3.238E3,3.203E3,3.188E3,2.582E3,2.435E3,1.674E3,7.49E2,1.59E2,3.16E2,3.07E2,7.76E2,8.9E2,1.239E3,1.394E3,1.699E3,1.065E3,1.68E3,1.674E3,1.251E3,1.638E3,1.516E3,1.698E3,1.836E3,1.396E3,1.469E3,1.255E3,1.983E3,1.529E3,1.674E3,1.801E3,1.387E3,1.28E3,1.302E3,1.376E3,1.059E3,9.19E2,7.55E2,4.41E2,3.08E2,1.55E2,1.61E2,3.12E2,4.64E2,6.34E2,6.05E2,6.25E2,7.69E2,7.69E2,9.3E2,8.2E1,9.83E2,5.1E1,1.629E3,5.9E1,1.615E3,6.7E1,1.184E3,9.7E1,1.541E3,1.95E2,1.321E3,1.54E2,1.544E3,9.7E1,1.739E3,2.73E2,1.123E3,1.85E2,1.284E3,1.4E2,1.115E3,3.6E2,1.623E3,3.47E2,1.182E3,2.87E2,1.387E3,1.66E2,1.635E3,5.69E2,8.18E2,6.68E2,6.12E2,5.9E2,7.12E2,6.25E2,7.51E2,4.1E2,6.49E2,5.32E2,3.87E2,3.96E2,3.59E2,2.87E2,1.54E2,1.63E2,1.45E2,3.4E1,7.35E2,1.14E2,6.55E2,9.6E1,8.34E2,6.6E1,1.6E1,4.7E1,4E0,7.23E2,9.06E2,2.9E1,3E1,7.09E2,9.06E2,3.9E1,2.8E1,5.72E2,6.12E2,4.8E1,4.9E1,6.98E2,8.43E2,1.52E2,4.3E1,6.21E2,7E2,1.28E2,2.6E1,8.2E2,7.24E2,5.3E1,4.4E1,9.8E2,7.59E2,1.8E2,9.3E1,5.86E2,5.37E2,9.8E1,8.7E1,7.36E2,5.48E2,8.9E1,5.1E1,6.95E2,4.2E2,2.09E2,1.51E2,8.23E2,8E2,1.57E2,1.9E2,5.6E2,6.22E2,1.25E2,1.62E2,7.18E2,6.69E2,1.38E2,2.8E1,6.58E2,9.77E2,3.07E2,2.62E2,3E2,5.18E2,1.28E2,5.4E2,3.53E2,2.59E2,3.09E2,2.81E2,4.57E2,2.55E2,1.68E2,4.57E2,7E0,7.44E2,3.58E2,2.91E2,1E0,3.86E2],"tree_param":{"num_deleted":"0","num_feature":"38","num_nodes":"205","size_leaf_vector":"1"}},{"base_weights":[2.1804966E-2,-5.023818E0,4.750564E0,-8.947592E0,-2.8801734E0,2.5878112E0,8.39739E0,-1.2782624E1,-7.682181E0,-4.446611E0,-1.602773E0,1.1904631E0,3.9446542E0,7.0848517E0,1.1329515E1,-1.5448183E1,-1.1268558E1,-8.861568E0,-6.8161707E0,-5.155718E0,-3.743832E0,-2.3441322E0,-9.3236315E-1,5.287581E-1,1.8931869E0,3.1635153E0,4.587817E0,6.223768E0,8.041649E0,1.0356879E1,1.3835182E1,-1.7025513E1,-6.93596E-1,-5.9753317E-1,-5.370218E-1,-9.558649E0,-8.325119E0,-7.2736497E0,-6.2962813E0,-5.489099E0,-4.7358584E0,-4.062343E0,-3.4262915E0,-2.6577344E0,-1.920695E0,-1.2949526E0,-6.0975856E-1,1.1161461E-1,8.3661103E-1,1.6884469E0,2.5318515E0,2.893285E0,3.780794E0,4.191614E0,5.0188775E0,6.666468E0,5.6549797E0,8.427467E0,7.224582E0,9.819372E0,1.12678795E1,1.3152949E1,7.9253244E-1,-9.0637064E-1,-7.942177E-1,-4.9426326E-1,-4.5938998E-1,-4.295698E-1,-4.0200582E-1,-3.7516168E-1,-6.925723E0,-6.0273805E0,-3.2639432E-1,-5.180268E0,-5.686867E0,-3.5589702E0,-4.8087473E0,-2.7462184E0,-4.114981E0,-2.5980577E0,-3.5353723E0,-1.3400652E0,-2.7358563E0,-1.1896628E0,-2.0603886E0,-7.191887E-1,-1.4453082E0,1.7551716E-1,-7.048637E-1,7.2291493E-1,-9.7041726E-2,1.7771186E0,6.951625E-1,2.1916459E0,1.4580455E0,2.1352768E0,2.8604577E0,3.4748564E0,2.6934273E0,4.521049E0,3.5026462E0,3.8054593E0,4.6097937E0,5.365905E0,4.45698E0,6.158573E0,7.011141E0,5.2215652E0,6.0495896E0,7.9509387E0,8.978942E0,6.7772217E0,3.9137897E-1,5.134031E-1,9.132894E0,6.004129E-1,5.4046124E-1,6.780853E-1,6.0583776E-1,-2.7208725E-1,-3.4879228E-1,-3.0863675E-1,-2.66172E-1,-2.631385E-1,-1.6800652E-1,-2.9214126E-1,-2.7117562E-1,-1.7992398E-1,-1.5882207E-2,-2.508375E-1,-2.297101E-1,-1.4847042E-1,-7.113024E-2,-1.9694076E-1,-2.1985367E-1,-6.8356E-2,-1.4465997E-1,-1.6804767E-1,-1.9035213E-1,-1.0721507E-1,-3.9567333E-2,-1.4753835E-1,-1.2677397E-1,-6.618776E-2,3.097554E-2,-1.1883449E-1,-9.689629E-2,-4.3075472E-2,1.0530003E-2,-8.339655E-2,-6.130859E-2,3.2851893E-2,-1.6591739E-2,-4.107483E-2,-1.5350816E-2,1.7339362E-2,6.512103E-2,-1.0049495E-2,1.7840551E-2,7.599857E-2,1.5383147E-1,2.8505867E-2,5.9775706E-2,8.893281E-2,1.21747315E-1,4.938325E-2,8.463725E-2,8.976676E-2,1.2293293E-1,1.6106029E-1,1.1726277E-1,1.5754424E-1,1.8860835E-1,1.16615795E-1,1.4794411E-1,2.4348457E-1,1.8331574E-1,1.4493617E-1,1.9365971E-1,2.0985739E-1,1.8147695E-1,1.9806044E-1,2.4454904E-1,2.3506694E-1,2.7909768E-1,2.1398704E-1,2.424296E-1,3.5098913E-1,2.971086E-1,3.0635324E-1,3.5937837E-1,2.4906495E-1,2.7371714E-1,2.899652E-1,3.1780276E-1,3.8778952E-1,4.2696705E-1,4.3604293E-1,4.7932568E-1,7.124814E-2,3.3986318E-1,4.3524942E-1,4.8187026E-1],"categories":[],"categories_nodes":[],"categories_segments":[],"categories_sizes":[],"default_left":[0,0,0,0,0,0,0,0,0,0,0,0,0,0,0,0,0,0,0,0,0,0,0,0,0,0,0,0,0,0,0,0,0,0,0,0,0,0,0,0,0,0,0,0,0,0,0,0,0,0,0,0,0,0,0,0,0,0,0,0,0,0,0,0,0,0,0,0,0,0,0,0,0,0,0,0,0,0,0,0,0,0,0,0,0,0,0,0,0,0,0,0,0,0,0,0,0,0,0,0,0,0,0,0,0,0,0,0,0,0,0,0,0,0,0,0,0,0,0,0,0,0,0,0,0,0,0,0,0,0,0,0,0,0,0,0,0,0,0,0,0,0,0,0,0,0,0,0,0,0,0,0,0,0,0,0,0,0,0,0,0,0,0,0,0,0,0,0,0,0,0,0,0,0,0,0,0,0,0,0,0,0,0,0,0,0,0,0,0,0,0,0,0,0,0,0,0,0,0,0,0,0,0],"id":7,"left_children":[1,3,5,7,9,11,13,15,17,19,21,23,25,27,29,31,33,35,37,39,41,43,45,47,49,51,53,55,57,59,61,63,-1,-1,-1,65,67,69,71,73,75,77,79,81,83,85,87,89,91,93,95,97,99,101,103,105,107,109,111,113,115,117,-1,-1,-1,-1,-1,-1,-1,-1,119,121,-1,123,125,127,129,131,133,135,137,139,141,143,145,147,149,151,153,155,157,159,161,163,165,167,169,171,173,175,177,179,181,183,185,187,189,191,193,195,197,199,-1,-1,201,-1,-1,-1,-1,-1,-1,-1,-1,-1,-1,-1,-1,-1,-1,-1,-1,-1,-1,-1,-1,-1,-1,-1,-1,-1,-1,-1,-1,-1,-1,-1,-1,-1,-1,-1,-1,-1,-1,-1,-1,-1,-1,-1,-1,-1,-1,-1,-1,-1,-1,-1,-1,-1,-1,-1,-1,-1,-1,-1,-1,-1,-1,-1,-1,-1,-1,-1,-1,-1,-1,-1,-1,-1,-1,-1,-1,-1,-1,-1,-1,-1,-1,-1,-1,-1,-1,-1,-1],"loss_changes":[9.354609E5,1.595174E5,1.5960697E5,3.2421E4,2.454075E4,2.4085648E4,2.89145E4,6.5294062E3,5.0882812E3,2.726586E3,3.3571367E3,2.910338E3,3.2239531E3,4.2398906E3,5.5302812E3,1.2531094E3,2.5457812E2,7.173125E2,6.465625E2,3.5753125E2,2.6633984E2,4.2102148E2,4.145818E2,4.1418597E2,3.927129E2,4.7513477E2,5.8235156E2,6.535078E2,7.155625E2,7.124844E2,6.8252344E2,8.300781E1,0E0,0E0,0E0,2.0617188E1,2.2898438E1,7.1203125E1,4.5976562E1,6.3441406E1,8.7541016E1,8.416406E1,1.1675488E2,1.8584375E2,1.3735205E2,1.4361792E2,1.4060388E2,1.749435E2,2.4567468E2,2.6369287E2,8.967529E1,2.2670703E2,1.6618066E2,2.8071484E2,3.0504297E2,2.2605469E2,1.7501562E2,3.666797E2,1.6194922E2,2.3425781E2,7.971875E1,4.321875E1,0E0,0E0,0E0,0E0,0E0,0E0,0E0,0E0,8.603516E0,3.3341797E1,0E0,7.316504E1,5.9726562E0,8.461609E0,2.8091797E1,1.2319061E1,4.8427734E1,5.635254E1,4.5438477E1,4.4639557E1,6.7319336E1,5.4676453E1,3.9862305E1,4.6231674E1,6.25459E1,5.005532E1,7.7610535E1,7.561922E1,4.8333954E1,7.619171E1,1.0036334E2,6.811572E1,1.7297803E2,3.263257E1,6.660254E1,3.781543E1,1.3841992E2,5.3069336E1,1.3356006E2,5.13291E1,1.4147852E2,1.2278906E2,2.4365234E1,7.569922E1,9.774219E1,8.137695E0,1.1154297E1,3.7460938E1,3.6351562E1,4.0195312E1,0E0,0E0,8.9375E0,0E0,0E0,0E0,0E0,0E0,0E0,0E0,0E0,0E0,0E0,0E0,0E0,0E0,0E0,0E0,0E0,0E0,0E0,0E0,0E0,0E0,0E0,0E0,0E0,0E0,0E0,0E0,0E0,0E0,0E0,0E0,0E0,0E0,0E0,0E0,0E0,0E0,0E0,0E0,0E0,0E0,0E0,0E0,0E0,0E0,0E0,0E0,0E0,0E0,0E0,0E0,0E0,0E0,0E0,0E0,0E0,0E0,0E0,0E0,0E0,0E0,0E0,0E0,0E0,0E0,0E0,0E0,0E0,0E0,0E0,0E0,0E0,0E0,0E0,0E0,0E0,0E0,0E0,0E0,0E0,0E0,0E0,0E0,0E0,0E0,0E0,0E0,0E0],"parents":[2147483647,0,0,1,1,2,2,3,3,4,4,5,5,6,6,7,7,8,8,9,9,10,10,11,11,12,12,13,13,14,14,15,15,16,16,17,17,18,18,19,19,20,20,21,21,22,22,23,23,24,24,25,25,26,26,27,27,28,28,29,29,30,30,31,31,35,35,36,36,37,37,38,38,39,39,40,40,41,41,42,42,43,43,44,44,45,45,46,46,47,47,48,48,49,49,50,50,51,51,52,52,53,53,54,54,55,55,56,56,57,57,58,58,59,59,60,60,61,61,70,70,71,71,73,73,74,74,75,75,76,76,77,77,78,78,79,79,80,80,81,81,82,82,83,83,84,84,85,85,86,86,87,87,88,88,89,89,90,90,91,91,92,92,93,93,94,94,95,95,96,96,97,97,98,98,99,99,100,100,101,101,102,102,103,103,104,104,105,105,106,106,107,107,108,108,109,109,110,110,111,111,114,114],"right_children":[2,4,6,8,10,12,14,16,18,20,22,24,26,28,30,32,34,36,38,40,42,44,46,48,50,52,54,56,58,60,62,64,-1,-1,-1,66,68,70,72,74,76,78,80,82,84,86,88,90,92,94,96,98,100,102,104,106,108,110,112,114,116,118,-1,-1,-1,-1,-1,-1,-1,-1,120,122,-1,124,126,128,130,132,134,136,138,140,142,144,146,148,150,152,154,156,158,160,162,164,166,168,170,172,174,176,178,180,182,184,186,188,190,192,194,196,198,200,-1,-1,202,-1,-1,-1,-1,-1,-1,-1,-1,-1,-1,-1,-1,-1,-1,-1,-1,-1,-1,-1,-1,-1,-1,-1,-1,-1,-1,-1,-1,-1,-1,-1,-1,-1,-1,-1,-1,-1,-1,-1,-1,-1,-1,-1,-1,-1,-1,-1,-1,-1,-1,-1,-1,-1,-1,-1,-1,-1,-1,-1,-1,-1,-1,-1,-1,-1,-1,-1,-1,-1,-1,-1,-1,-1,-1,-1,-1,-1,-1,-1,-1,-1,-1,-1,-1,-1,-1,-1,-1],"split_conditions":[8.81E0,6.38E0,1.692E1,-5.53E0,4.67E0,1.27E1,2.237E1,2.94E0,5.22E0,2.77E0,6.75E0,1.083E1,1.453E1,1.938E1,2.675E1,2.34E0,3.58E0,-3.75E0,5.86E0,1.85E0,7.99E0,9.26E0,7.74E0,9.68E0,8.660254E-1,7.0710677E-1,1.573E1,1.5E1,1.7E1,2.459E1,3.026E1,2.5852E2,-6.93596E-1,-5.9753317E-1,-5.370218E-1,-4.61E0,4.96E0,5.6E0,2.5881904E-1,-1.8369701E-16,1.08E0,1.73E0,3.43E0,3.75E0,5.57E0,6.75E0,7.3E0,8.81E0,9.2E0,-5E-1,6E0,-7.0710677E-1,1.234E1,1.2246469E-16,1.6E1,1.779E1,1.803E1,2.086E1,2.086E1,1.6E1,1.4E1,1.7E1,7.9253244E-1,-9.0637064E-1,-7.942177E-1,-4.9426326E-1,-4.5938998E-1,-4.295698E-1,-4.0200582E-1,-3.7516168E-1,-1.96E0,2.8825862E0,-3.2639432E-1,4.213782E0,6.73E0,2.5E0,1.2246469E-16,4.519436E0,1.4E1,1.9245158E-1,1.5E1,3.0995946E0,8.9E0,5.77E0,-5E-1,4.089468E0,1.024E1,3.73E0,8.660254E-1,2.983979E0,8.660254E-1,4.505908E0,8.660254E-1,1.153E1,1.361E1,1.172E1,3.08E0,1.367E1,1.346E1,1.882E2,1.346E1,-2.5881904E-1,5E0,5E0,9.1E0,1.573E1,4E0,1.752E1,1.873E1,7.0710677E-1,5E-1,4E0,3.9137897E-1,5.134031E-1,2.348E1,6.004129E-1,5.4046124E-1,6.780853E-1,6.0583776E-1,-2.7208725E-1,-3.4879228E-1,-3.0863675E-1,-2.66172E-1,-2.631385E-1,-1.6800652E-1,-2.9214126E-1,-2.7117562E-1,-1.7992398E-1,-1.5882207E-2,-2.508375E-1,-2.297101E-1,-1.4847042E-1,-7.113024E-2,-1.9694076E-1,-2.1985367E-1,-6.8356E-2,-1.4465997E-1,-1.6804767E-1,-1.9035213E-1,-1.0721507E-1,-3.9567333E-2,-1.4753835E-1,-1.2677397E-1,-6.618776E-2,3.097554E-2,-1.1883449E-1,-9.689629E-2,-4.3075472E-2,1.0530003E-2,-8.339655E-2,-6.130859E-2,3.2851893E-2,-1.6591739E-2,-4.107483E-2,-1.5350816E-2,1.7339362E-2,6.512103E-2,-1.0049495E-2,1.7840551E-2,7.599857E-2,1.5383147E-1,2.8505867E-2,5.9775706E-2,8.893281E-2,1.21747315E-1,4.938325E-2,8.463725E-2,8.976676E-2,1.2293293E-1,1.6106029E-1,1.1726277E-1,1.5754424E-1,1.8860835E-1,1.16615795E-1,1.4794411E-1,2.4348457E-1,1.8331574E-1,1.4493617E-1,1.9365971E-1,2.0985739E-1,1.8147695E-1,1.9806044E-1,2.4454904E-1,2.3506694E-1,2.7909768E-1,2.1398704E-1,2.424296E-1,3.5098913E-1,2.971086E-1,3.0635324E-1,3.5937837E-1,2.4906495E-1,2.7371714E-1,2.899652E-1,3.1780276E-1,3.8778952E-1,4.2696705E-1,4.3604293E-1,4.7932568E-1,7.124814E-2,3.3986318E-1,4.3524942E-1,4.8187026E-1],"split_indices":[1,5,1,1,1,1,1,5,5,1,1,1,1,1,1,5,5,1,5,1,5,5,1,1,20,20,1,14,14,1,1,2,0,0,0,1,5,5,21,21,26,26,26,26,26,26,26,26,26,21,14,21,26,20,14,1,1,1,1,14,14,14,0,0,0,0,0,0,0,0,26,33,0,33,5,3,20,35,14,23,14,35,5,8,20,33,5,12,20,33,20,33,20,1,5,1,12,1,1,13,1,21,14,14,8,26,14,1,1,20,20,16,0,0,1,0,0,0,0,0,0,0,0,0,0,0,0,0,0,0,0,0,0,0,0,0,0,0,0,0,0,0,0,0,0,0,0,0,0,0,0,0,0,0,0,0,0,0,0,0,0,0,0,0,0,0,0,0,0,0,0,0,0,0,0,0,0,0,0,0,0,0,0,0,0,0,0,0,0,0,0,0,0,0,0,0,0,0,0,0,0,0,0],"split_type":[0,0,0,0,0,0,0,0,0,0,0,0,0,0,0,0,0,0,0,0,0,0,0,0,0,0,0,0,0,0,0,0,0,0,0,0,0,0,0,0,0,0,0,0,0,0,0,0,0,0,0,0,0,0,0,0,0,0,0,0,0,0,0,0,0,0,0,0,0,0,0,0,0,0,0,0,0,0,0,0,0,0,0,0,0,0,0,0,0,0,0,0,0,0,0,0,0,0,0,0,0,0,0,0,0,0,0,0,0,0,0,0,0,0,0,0,0,0,0,0,0,0,0,0,0,0,0,0,0,0,0,0,0,0,0,0,0,0,0,0,0,0,0,0,0,0,0,0,0,0,0,0,0,0,0,0,0,0,0,0,0,0,0,0,0,0,0,0,0,0,0,0,0,0,0,0,0,0,0,0,0,0,0,0,0,0,0,0,0,0,0,0,0,0,0,0,0,0,0,0,0,0,0],"sum_hessian":[3.9205E4,1.8967E4,2.0238E4,6.7E3,1.2267E4,1.2705E4,7.533E3,1.66E3,5.04E3,5.509E3,6.758E3,6.26E3,6.445E3,5.206E3,2.327E3,5.98E2,1.062E3,2.13E3,2.91E3,2.739E3,2.77E3,3.208E3,3.55E3,3.225E3,3.035E3,2.913E3,3.532E3,2.744E3,2.462E3,1.68E3,6.47E2,2.94E2,3.04E2,4.54E2,6.08E2,9.19E2,1.211E3,1.541E3,1.369E3,1.52E3,1.219E3,1.377E3,1.393E3,1.84E3,1.368E3,1.67E3,1.88E3,1.37E3,1.855E3,2.301E3,7.34E2,2.03E3,8.83E2,1.846E3,1.686E3,1.537E3,1.207E3,1.666E3,7.96E2,1.064E3,6.16E2,4.89E2,1.58E2,1.42E2,1.52E2,4.75E2,4.44E2,6.11E2,6E2,9.16E2,6.25E2,6.46E2,7.23E2,6.04E2,9.16E2,7.4E1,1.145E3,5.5E1,1.322E3,1.65E2,1.228E3,1.04E2,1.736E3,2.21E2,1.147E3,3.47E2,1.323E3,2.03E2,1.677E3,3.48E2,1.022E3,2.41E2,1.614E3,7.2E2,1.581E3,3.36E2,3.98E2,5.15E2,1.515E3,2.37E2,6.46E2,9.65E2,8.81E2,1.037E3,6.49E2,6.29E2,9.08E2,5.82E2,6.25E2,9.02E2,7.64E2,4.64E2,3.32E2,6.35E2,4.29E2,2.26E2,3.9E2,3.42E2,1.47E2,2.4E1,6.01E2,5.29E2,1.17E2,5.76E2,2.8E1,5.62E2,3.54E2,7.3E1,1E0,5.7E2,5.75E2,4.6E1,9E0,8.23E2,4.99E2,3.3E1,1.32E2,7.56E2,4.72E2,4.1E1,6.3E1,8.31E2,9.05E2,2.06E2,1.5E1,3.15E2,8.32E2,3.01E2,4.6E1,6.53E2,6.7E2,1.04E2,9.9E1,1.296E3,3.81E2,2.12E2,1.36E2,8.32E2,1.9E2,2.03E2,3.8E1,1.293E3,3.21E2,2.7E2,4.5E2,5.28E2,1.053E3,1.67E2,1.69E2,2.31E2,1.67E2,2.52E2,2.63E2,6.46E2,8.69E2,1.65E2,7.2E1,2.49E2,3.97E2,2.92E2,6.73E2,2.71E2,6.1E2,2.6E2,7.77E2,4.55E2,1.94E2,1.2E2,5.09E2,1.57E2,7.51E2,3.09E2,2.73E2,3.55E2,2.7E2,6.88E2,2.14E2,5.47E2,2.17E2,2E0,4.62E2,2.42E2,1.87E2],"tree_param":{"num_deleted":"0","num_feature":"38","num_nodes":"203","size_leaf_vector":"1"}},{"base_weights":[-9.522758E-4,-4.675572E0,4.609041E0,-8.258669E0,-2.5050628E0,2.6476417E0,8.142692E0,-1.1754113E1,-6.9693694E0,-3.8954349E0,-1.268883E0,1.3802044E0,4.0135603E0,6.9267054E0,1.0851245E1,-1.47343445E1,-1.0423891E1,-8.098595E0,-6.2120476E0,-4.54614E0,-3.2016816E0,-1.9882574E0,-6.848702E-1,7.6168704E-1,2.0867763E0,3.3841786E0,4.7163787E0,6.238646E0,7.9362316E0,9.923479E0,1.3199027E1,-1.621852E1,-6.5884036E-1,-5.5881476E-1,-4.909292E-1,-4.3517515E-1,-7.6576395E0,-6.7086954E0,-5.754521E0,-4.9235E0,-4.191549E0,-3.5166254E0,-2.886473E0,-2.2332883E0,-1.5686388E0,-9.846472E-1,-2.9463816E-1,3.3906436E-1,1.0865126E0,2.3297157E0,1.6247593E0,3.681773E0,2.9090838E0,5.0434666E0,4.167482E0,6.622729E0,5.636744E0,8.381736E0,7.2788963E0,9.29781E0,1.0554926E1,1.2492455E1,7.556941E-1,-8.678565E-1,-7.539092E-1,-7.835387E0,-3.6833915E-1,-6.8970737E0,-6.4111156E0,-5.9919066E0,-5.5523467E0,-3.9995391E0,-5.0041666E0,-3.4221363E0,-4.2824473E0,-2.659455E0,-3.6214278E0,-1.2771584E0,-2.9456573E0,-2.0320292E0,-2.5931604E0,-8.9098424E-1,-1.744223E0,9.267829E-2,-1.0630897E0,3.4116814E-1,-4.4218206E-1,1.632485E0,2.5031137E-1,1.8169838E0,9.098282E-1,1.848654E0,2.6747468E0,1.3515207E0,1.933213E0,3.0162694E0,3.921532E0,2.5914745E0,3.2029417E0,4.404371E0,5.2546563E0,3.9369817E0,4.552758E0,6.1933465E0,7.078196E0,5.261287E0,6.1209965E0,8.029761E0,4.4633493E-1,6.8973355E0,3.9108533E-1,4.930938E-1,8.71759E0,1.1128041E1,1.0009456E1,6.596238E-1,5.9458417E-1,-2.3125051E-1,-3.925241E-1,-2.9445413E-1,-3.479983E-1,-2.5823665E-1,-3.2277757E-1,-2.5361618E-1,-3.0274844E-1,-2.4270406E-1,-2.8234097E-1,-2.0854758E-1,-1.5270887E-1,-2.644259E-1,-2.428694E-1,-1.9061561E-1,-1.3249569E-1,-2.2271729E-1,-2.015748E-1,-1.5252203E-1,-1.015041E-1,-1.733047E-1,-1.9250113E-1,-1.0524181E-1,-3.3763733E-2,-1.4016046E-1,-1.6300628E-1,-1.19860135E-1,-8.629834E-2,-1.1630856E-1,-1.3909142E-1,-5.5518337E-2,-8.731653E-3,-8.180268E-2,-1.0771568E-1,2.7258618E-2,-3.527824E-2,-4.4882163E-2,-6.813418E-2,3.5272963E-2,-1.8623084E-2,-1.3232442E-2,-3.4216087E-2,1.0565486E-1,4.0900808E-2,2.2153338E-2,-3.9286218E-3,1.1590224E-1,6.622519E-2,2.9140553E-2,5.4059535E-2,7.897785E-2,1.0978909E-1,1.5381737E-1,1.1831069E-1,5.338746E-2,7.812905E-2,1.05885506E-1,8.513046E-2,1.2950185E-1,1.6443712E-1,1.797532E-1,2.1271978E-1,1.2099711E-1,1.450154E-1,1.4621411E-1,1.690219E-1,2.0404112E-1,2.3956604E-1,2.8218147E-1,2.4321249E-1,1.8871123E-1,2.173587E-1,2.1603683E-1,2.4585302E-1,2.7547118E-1,3.1859368E-1,3.7934825E-1,3.4216282E-1,2.4910226E-1,2.7297285E-1,1.5050276E-1,3.0669898E-1,3.4584296E-1,4.0612108E-1,1.9339496E-1,3.4605408E-1,1.2151604E-1,4.3636164E-1,1.5990244E-1,5.570468E-1,2.0865376E-1,5.0140095E-1],"categories":[],"categories_nodes":[],"categories_segments":[],"categories_sizes":[],"default_left":[0,0,0,0,0,0,0,0,0,0,0,0,0,0,0,0,0,0,0,0,0,0,0,0,0,0,0,0,0,0,0,0,0,0,0,0,0,0,0,0,0,0,0,0,0,0,0,0,0,0,0,0,0,0,0,0,0,0,0,0,0,0,0,0,0,0,0,0,0,0,0,0,0,0,0,0,0,0,0,0,0,0,0,0,0,0,0,0,0,0,0,0,0,0,0,0,0,0,0,0,0,0,0,0,0,0,0,0,0,0,0,0,0,0,0,0,0,0,0,0,0,0,0,0,0,0,0,0,0,0,0,0,0,0,0,0,0,0,0,0,0,0,0,0,0,0,0,0,0,0,0,0,0,0,0,0,0,0,0,0,0,0,0,0,0,0,0,0,0,0,0,0,0,0,0,0,0,0,0,0,0,0,0,0,0,0,0,0,0,0,0,0,0,0,0,0,0,0,0,0,0,0,0,0,0,0,0,0,0],"id":8,"left_children":[1,3,5,7,9,11,13,15,17,19,21,23,25,27,29,31,33,35,37,39,41,43,45,47,49,51,53,55,57,59,61,63,-1,-1,-1,-1,65,67,69,71,73,75,77,79,81,83,85,87,89,91,93,95,97,99,101,103,105,107,109,111,113,115,-1,-1,-1,117,-1,119,121,123,125,127,129,131,133,135,137,139,141,143,145,147,149,151,153,155,157,159,161,163,165,167,169,171,173,175,177,179,181,183,185,187,189,191,193,195,197,199,-1,201,-1,-1,203,205,207,-1,-1,-1,-1,-1,-1,-1,-1,-1,-1,-1,-1,-1,-1,-1,-1,-1,-1,-1,-1,-1,-1,-1,-1,-1,-1,-1,-1,-1,-1,-1,-1,-1,-1,-1,-1,-1,-1,-1,-1,-1,-1,-1,-1,-1,-1,-1,-1,-1,-1,-1,-1,-1,-1,-1,-1,-1,-1,-1,-1,-1,-1,-1,-1,-1,-1,-1,-1,-1,-1,-1,-1,-1,-1,-1,-1,-1,-1,-1,-1,-1,-1,-1,-1,-1,-1,-1,-1,-1,-1,-1,-1,-1,-1],"loss_changes":[8.452112E5,1.514314E5,1.3684294E5,3.3024125E4,2.0841773E4,2.1980922E4,2.3137875E4,7.6879375E3,4.5411875E3,2.5622031E3,2.6966729E3,2.8779805E3,2.687625E3,3.3311562E3,4.6218438E3,1.1917656E3,5.146719E2,5.07375E2,6.926094E2,3.7316406E2,2.644414E2,2.9230957E2,4.1453027E2,4.8216614E2,3.413584E2,4.456836E2,4.9694922E2,6.328594E2,5.1560156E2,5.2134375E2,6.4327344E2,1.3689844E2,0E0,0E0,0E0,0E0,7.0625E0,4.1945312E1,4.7453125E1,8.582031E1,9.192969E1,1.1425E2,1.2843945E2,1.2611328E2,1.2504614E2,1.6953711E2,1.4480487E2,1.7511288E2,2.5479468E2,3.2917578E2,8.6978516E1,3.0425977E2,1.08177734E2,2.2020703E2,7.825391E1,3.0115625E2,1.7433984E2,1.5217188E2,1.1236719E2,1.7454688E2,1.3026562E2,3.446875E1,0E0,0E0,0E0,6.1328125E-1,0E0,1.7839844E1,4.4335938E-1,1.3419922E1,3.3410156E1,6.5446777E0,2.8652344E1,3.991382E1,4.0666016E1,3.1703003E1,3.0188477E1,2.3985115E1,5.079785E1,1.2640576E2,2.6120117E1,3.4537323E1,3.391455E1,4.9869076E1,9.141699E1,7.591373E1,5.363968E1,3.6632904E1,9.081519E1,9.2180176E1,8.9143555E1,7.537036E1,1.3769238E2,3.229077E1,1.753955E1,5.2918457E1,1.4260156E2,2.5031494E1,2.1967285E1,3.728711E1,1.7755469E2,2.9324219E1,1.2480469E1,7.6734375E1,4.95625E1,8.605469E0,1.3261719E0,1.7964844E1,0E0,7.7597656E0,0E0,0E0,3.0996094E0,1.9960938E0,2.1367188E0,0E0,0E0,0E0,0E0,0E0,0E0,0E0,0E0,0E0,0E0,0E0,0E0,0E0,0E0,0E0,0E0,0E0,0E0,0E0,0E0,0E0,0E0,0E0,0E0,0E0,0E0,0E0,0E0,0E0,0E0,0E0,0E0,0E0,0E0,0E0,0E0,0E0,0E0,0E0,0E0,0E0,0E0,0E0,0E0,0E0,0E0,0E0,0E0,0E0,0E0,0E0,0E0,0E0,0E0,0E0,0E0,0E0,0E0,0E0,0E0,0E0,0E0,0E0,0E0,0E0,0E0,0E0,0E0,0E0,0E0,0E0,0E0,0E0,0E0,0E0,0E0,0E0,0E0,0E0,0E0,0E0,0E0,0E0,0E0,0E0,0E0,0E0,0E0,0E0,0E0,0E0,0E0,0E0,0E0],"parents":[2147483647,0,0,1,1,2,2,3,3,4,4,5,5,6,6,7,7,8,8,9,9,10,10,11,11,12,12,13,13,14,14,15,15,16,16,17,17,18,18,19,19,20,20,21,21,22,22,23,23,24,24,25,25,26,26,27,27,28,28,29,29,30,30,31,31,36,36,37,37,38,38,39,39,40,40,41,41,42,42,43,43,44,44,45,45,46,46,47,47,48,48,49,49,50,50,51,51,52,52,53,53,54,54,55,55,56,56,57,57,58,58,59,59,60,60,61,61,65,65,67,67,68,68,69,69,70,70,71,71,72,72,73,73,74,74,75,75,76,76,77,77,78,78,79,79,80,80,81,81,82,82,83,83,84,84,85,85,86,86,87,87,88,88,89,89,90,90,91,91,92,92,93,93,94,94,95,95,96,96,97,97,98,98,99,99,100,100,101,101,102,102,103,103,104,104,105,105,106,106,107,107,109,109,112,112,113,113,114,114],"right_children":[2,4,6,8,10,12,14,16,18,20,22,24,26,28,30,32,34,36,38,40,42,44,46,48,50,52,54,56,58,60,62,64,-1,-1,-1,-1,66,68,70,72,74,76,78,80,82,84,86,88,90,92,94,96,98,100,102,104,106,108,110,112,114,116,-1,-1,-1,118,-1,120,122,124,126,128,130,132,134,136,138,140,142,144,146,148,150,152,154,156,158,160,162,164,166,168,170,172,174,176,178,180,182,184,186,188,190,192,194,196,198,200,-1,202,-1,-1,204,206,208,-1,-1,-1,-1,-1,-1,-1,-1,-1,-1,-1,-1,-1,-1,-1,-1,-1,-1,-1,-1,-1,-1,-1,-1,-1,-1,-1,-1,-1,-1,-1,-1,-1,-1,-1,-1,-1,-1,-1,-1,-1,-1,-1,-1,-1,-1,-1,-1,-1,-1,-1,-1,-1,-1,-1,-1,-1,-1,-1,-1,-1,-1,-1,-1,-1,-1,-1,-1,-1,-1,-1,-1,-1,-1,-1,-1,-1,-1,-1,-1,-1,-1,-1,-1,-1,-1,-1,-1,-1,-1,-1,-1,-1,-1],"split_conditions":[9.1E0,6.6E0,1.727E1,-4.9E0,8.84E0,1.317E1,2.263E1,-9.6E0,-1.79E0,7.75E0,7.04E0,1.132E1,1.524E1,2.002E1,2.675E1,-1.245E1,3.71E0,-3.23E0,-2.8E-1,7.16E0,4.24E0,9.59E0,8.19E0,1.007E1,1.5E1,1.5E1,1.6E1,1.6E1,1.6E1,2.42E1,3.026E1,2.5852E2,-6.5884036E-1,-5.5881476E-1,-4.909292E-1,-4.3517515E-1,5.15E0,-8.9E-1,6.26E0,6E-1,1.85E0,3.01E0,2.89E0,1.5E1,6.16E0,6.26E0,8.02E0,8.02E0,9.99E0,5E0,1.234E1,4E0,1.413E1,5E0,1.648E1,1.857E1,1.873E1,2.146E1,2.146E1,1.5E1,1.5E1,1.5E1,7.556941E-1,-8.678565E-1,-7.539092E-1,-5.2E0,-3.6833915E-1,-2.13E0,-1.96E0,-8.9E-1,1E-1,3.965295E0,1.47E0,3.0404649E0,7.52E0,2.803818E0,1.5E1,3.4521387E0,5.85E0,6E0,7.907049E-1,3.791686E0,7.48E0,3.68E0,1.5E1,1.2E1,1.5E1,3.24E0,1.5E1,3.36E0,1.053E1,1.234E1,3.08E0,6.32E0,2.6510274E0,1.394E1,1.424E1,7.73E0,8.64E0,1.627E1,1.1E1,1.226E1,6.794E1,5E0,1.803E1,1.791E1,1.043E1,5E0,4.4633493E-1,9.727E2,3.9108533E-1,4.930938E-1,-9.999756E-1,9.6133E2,2.168E1,6.596238E-1,5.9458417E-1,-2.3125051E-1,-3.925241E-1,-2.9445413E-1,-3.479983E-1,-2.5823665E-1,-3.2277757E-1,-2.5361618E-1,-3.0274844E-1,-2.4270406E-1,-2.8234097E-1,-2.0854758E-1,-1.5270887E-1,-2.644259E-1,-2.428694E-1,-1.9061561E-1,-1.3249569E-1,-2.2271729E-1,-2.015748E-1,-1.5252203E-1,-1.015041E-1,-1.733047E-1,-1.9250113E-1,-1.0524181E-1,-3.3763733E-2,-1.4016046E-1,-1.6300628E-1,-1.19860135E-1,-8.629834E-2,-1.1630856E-1,-1.3909142E-1,-5.5518337E-2,-8.731653E-3,-8.180268E-2,-1.0771568E-1,2.7258618E-2,-3.527824E-2,-4.4882163E-2,-6.813418E-2,3.5272963E-2,-1.8623084E-2,-1.3232442E-2,-3.4216087E-2,1.0565486E-1,4.0900808E-2,2.2153338E-2,-3.9286218E-3,1.1590224E-1,6.622519E-2,2.9140553E-2,5.4059535E-2,7.897785E-2,1.0978909E-1,1.5381737E-1,1.1831069E-1,5.338746E-2,7.812905E-2,1.05885506E-1,8.513046E-2,1.2950185E-1,1.6443712E-1,1.797532E-1,2.1271978E-1,1.2099711E-1,1.450154E-1,1.4621411E-1,1.690219E-1,2.0404112E-1,2.3956604E-1,2.8218147E-1,2.4321249E-1,1.8871123E-1,2.173587E-1,2.1603683E-1,2.4585302E-1,2.7547118E-1,3.1859368E-1,3.7934825E-1,3.4216282E-1,2.4910226E-1,2.7297285E-1,1.5050276E-1,3.0669898E-1,3.4584296E-1,4.0612108E-1,1.9339496E-1,3.4605408E-1,1.2151604E-1,4.3636164E-1,1.5990244E-1,5.570468E-1,2.0865376E-1,5.0140095E-1],"split_indices":[1,5,1,1,5,1,1,1,1,5,1,1,1,1,1,1,5,1,1,5,1,5,1,1,14,14,14,14,14,1,1,2,0,0,0,0,5,1,5,26,26,26,26,14,26,26,26,26,26,14,1,14,1,14,1,1,1,1,1,14,14,14,0,0,0,26,0,26,26,26,26,33,1,33,5,33,14,33,30,14,31,33,26,12,14,14,14,12,14,12,1,1,12,8,33,1,1,8,3,1,14,3,36,14,26,1,28,14,0,37,0,0,25,37,26,0,0,0,0,0,0,0,0,0,0,0,0,0,0,0,0,0,0,0,0,0,0,0,0,0,0,0,0,0,0,0,0,0,0,0,0,0,0,0,0,0,0,0,0,0,0,0,0,0,0,0,0,0,0,0,0,0,0,0,0,0,0,0,0,0,0,0,0,0,0,0,0,0,0,0,0,0,0,0,0,0,0,0,0,0,0,0,0,0,0,0,0,0,0],"split_type":[0,0,0,0,0,0,0,0,0,0,0,0,0,0,0,0,0,0,0,0,0,0,0,0,0,0,0,0,0,0,0,0,0,0,0,0,0,0,0,0,0,0,0,0,0,0,0,0,0,0,0,0,0,0,0,0,0,0,0,0,0,0,0,0,0,0,0,0,0,0,0,0,0,0,0,0,0,0,0,0,0,0,0,0,0,0,0,0,0,0,0,0,0,0,0,0,0,0,0,0,0,0,0,0,0,0,0,0,0,0,0,0,0,0,0,0,0,0,0,0,0,0,0,0,0,0,0,0,0,0,0,0,0,0,0,0,0,0,0,0,0,0,0,0,0,0,0,0,0,0,0,0,0,0,0,0,0,0,0,0,0,0,0,0,0,0,0,0,0,0,0,0,0,0,0,0,0,0,0,0,0,0,0,